<?xml version="1.0"?>
<opencv_storage>
<my_svm type_id="opencv-ml-svm">
  <svm_type>C_SVC</svm_type>
  <kernel><type>RBF</type>
    <gamma>5.0625000000000009e-001</gamma></kernel>
  <C>3.1250000000000000e+002</C>
  <term_criteria><epsilon>2.2204460492503131e-016</epsilon>
    <iterations>10000000</iterations></term_criteria>
  <var_all>1000</var_all>
  <var_count>1000</var_count>
  <class_count>6</class_count>
  <class_labels type_id="opencv-matrix">
    <rows>1</rows>
    <cols>6</cols>
    <dt>i</dt>
    <data>
      0 1 2 3 4 5</data></class_labels>
  <sv_total>94</sv_total>
  <support_vectors>
    <_>
      0. 0. 2.22717156e-003 2.22717156e-003 4.45434311e-003 0. 0.
      2.22717156e-003 0. 0. 0. 2.22717156e-003 0. 2.22717156e-003 0.
      2.22717156e-003 1.11358576e-002 0. 2.22717156e-003 0.
      4.45434311e-003 0. 0. 0. 0. 4.45434311e-003 0. 0. 4.45434311e-003
      0. 0. 0. 0. 0. 4.45434311e-003 0. 0. 0. 0. 0. 2.22717156e-003 0.
      0. 0. 2.22717156e-003 0. 0. 0. 0. 4.45434311e-003 0. 0. 0. 0. 0.
      0. 2.22717156e-003 2.22717156e-003 0. 0. 0. 0. 0. 0.
      4.45434311e-003 0. 4.45434311e-003 0. 0. 2.22717156e-003 0. 0. 0.
      0. 0. 0. 0. 0. 0. 0. 0. 0. 0. 0. 0. 0. 0. 0. 0. 0. 0. 0. 0. 0. 0.
      0. 0. 0. 0. 0. 0. 2.22717156e-003 0. 0. 0. 0. 2.22717156e-003 0.
      0. 0. 2.22717156e-003 0. 0. 0. 0. 0. 0. 0. 0. 0. 2.22717156e-003
      0. 0. 0. 0. 0. 2.22717156e-003 0. 0. 4.45434311e-003
      2.22717156e-003 0. 0. 0. 2.22717156e-003 0. 0. 2.22717156e-003
      4.45434311e-003 0. 0. 0. 0. 0. 4.45434311e-003 2.22717156e-003
      2.22717156e-003 0. 2.22717156e-003 0. 0. 0. 0. 2.22717156e-003 0.
      0. 0. 2.22717156e-003 0. 0. 0. 4.45434311e-003 0. 4.45434311e-003
      0. 0. 0. 0. 0. 2.22717156e-003 6.68151490e-003 0. 0. 0. 0. 0. 0.
      2.22717156e-003 0. 0. 2.22717156e-003 0. 0. 2.22717156e-003
      2.22717156e-003 2.22717156e-003 0. 2.22717156e-003 2.22717156e-003
      0. 0. 2.22717156e-003 2.22717156e-003 0. 0. 0. 0. 0. 0.
      6.68151490e-003 0. 0. 0. 0. 0. 0. 0. 0. 2.22717156e-003 0. 0.
      2.22717156e-003 2.22717156e-003 0. 0. 0. 2.22717156e-003
      4.45434311e-003 0. 2.22717156e-003 0. 4.45434311e-003 0. 0. 0. 0.
      0. 0. 0. 0. 0. 0. 6.68151490e-003 0. 0. 0. 0. 4.45434311e-003 0.
      0. 0. 0. 1.78173725e-002 0. 0. 0. 0. 0. 6.68151490e-003 0. 0. 0.
      0. 0. 0. 2.22717156e-003 0. 0. 0. 0. 0. 0. 0. 0. 2.22717156e-003
      0. 0. 0. 0. 2.22717156e-003 0. 0. 0. 0. 0. 0. 0. 0. 0. 0. 0. 0.
      2.22717156e-003 0. 0. 0. 0. 0. 0. 4.45434311e-003 0. 0. 0. 0. 0.
      0. 0. 0. 2.22717156e-003 0. 2.22717156e-003 0. 0. 0. 0. 0. 0. 0.
      0. 1.55902011e-002 0. 0. 0. 2.22717156e-003 0. 0. 0. 0. 0.
      1.33630298e-002 0. 0. 0. 0. 2.22717156e-003 0. 0. 0.
      4.45434311e-003 0. 0. 0. 0. 2.22717156e-003 0. 0. 4.45434311e-003
      2.22717156e-003 0. 0. 2.22717156e-003 2.22717156e-003 0.
      2.22717156e-003 2.22717156e-003 0. 0. 0. 0. 6.68151490e-003
      2.22717156e-003 2.22717156e-003 2.22717156e-003 0. 2.22717156e-003
      0. 0. 0. 2.22717156e-003 0. 0. 0. 0. 0. 0. 2.22717156e-003 0.
      4.45434311e-003 0. 0. 6.68151490e-003 8.90868623e-003
      4.45434311e-003 0. 0. 2.89532300e-002 0. 0. 0. 0. 0. 0.
      2.22717156e-003 2.22717156e-003 0. 0. 0. 0. 0. 0. 0. 0.
      2.22717156e-003 0. 2.22717156e-003 0. 2.22717156e-003
      4.45434311e-003 0. 2.22717156e-003 0. 0. 0. 0. 0. 0. 0.
      2.22717156e-003 0. 4.45434311e-003 0. 0. 2.22717156e-003 0. 0. 0.
      0. 0. 0. 0. 2.22717156e-003 0. 0. 0. 0. 4.45434311e-003
      4.45434311e-003 2.22717156e-003 0. 0. 0. 0. 0. 1.33630298e-002 0.
      0. 0. 2.22717156e-003 0. 0. 0. 0. 0. 0. 2.22717156e-003 0.
      4.45434311e-003 0. 0. 0. 2.22717156e-003 0. 0. 4.45434311e-003
      2.22717156e-003 0. 0. 0. 0. 0. 2.22717156e-003 0. 0. 0. 0.
      4.45434311e-003 0. 1.55902011e-002 2.22717156e-003 0. 0. 0. 0.
      2.22717156e-003 0. 1.33630298e-002 2.22717156e-003 0. 0. 0. 0.
      2.22717156e-003 0. 0. 0. 2.22717156e-003 0. 0. 0. 0. 0. 0. 0. 0.
      0. 0. 0. 0. 0. 6.68151490e-003 0. 0. 2.22717156e-003 0.
      2.22717156e-003 0. 2.22717156e-003 0. 0. 0. 2.22717156e-003 0.
      2.22717156e-003 0. 0. 0. 0. 2.22717156e-003 0. 0. 0. 0. 0. 0.
      2.22717156e-003 0. 0. 2.22717156e-003 2.22717156e-003 0. 0.
      2.22717156e-003 0. 2.22717156e-003 0. 0. 0. 0. 0. 0. 0. 0. 0.
      4.45434311e-003 0. 0. 0. 2.22717156e-003 0. 0. 2.22717156e-003 0.
      0. 0. 2.22717156e-003 2.22717156e-003 4.45434311e-003 0. 0. 0. 0.
      0. 0. 0. 6.68151490e-003 2.22717156e-003 0. 0. 0. 0.
      2.22717156e-003 0. 0. 0. 4.45434311e-003 0. 0. 0. 2.22717156e-003
      2.22717156e-003 0. 2.22717156e-003 0. 2.22717156e-003 0.
      1.11358576e-002 0. 0. 0. 0. 0. 0. 2.22717156e-003 6.68151490e-003
      0. 0. 0. 4.45434311e-003 0. 2.22717156e-003 0. 0. 0. 0. 0. 0. 0.
      4.45434311e-003 2.22717156e-003 0. 0. 0. 0. 0. 0. 0. 0.
      2.22717156e-003 2.22717156e-003 4.45434311e-003 0. 0. 0. 0.
      4.45434311e-003 0. 2.22717156e-003 0. 0. 2.22717156e-003 0. 0. 0.
      0. 2.22717156e-003 0. 0. 2.22717156e-003 0. 0. 0. 0. 0. 0.
      2.22717156e-003 0. 0. 0. 0. 2.22717156e-003 2.22717156e-003 0. 0.
      0. 3.34075727e-002 0. 0. 0. 0. 2.22717156e-003 0. 0. 0. 0.
      2.22717156e-003 0. 0. 0. 0. 0. 0. 0. 0. 0. 0. 0. 2.22717156e-003
      2.22717156e-003 4.45434311e-003 0. 0. 0. 0. 2.22717156e-003 0.
      6.68151490e-003 0. 0. 0. 2.22717156e-003 0. 0. 0. 0. 0.
      2.22717156e-003 0. 0. 2.22717156e-003 0. 0. 2.22717156e-003 0.
      6.68151490e-003 0. 0. 0. 0. 2.22717156e-003 0. 0. 0.
      2.22717156e-003 0. 0. 0. 0. 0. 0. 0. 1.11358576e-002 0. 0.
      1.11358576e-002 2.22717156e-003 0. 0. 0. 0. 0. 0. 0. 0. 0. 0. 0.
      0. 0. 2.22717156e-003 0. 0. 0. 0. 2.22717156e-003 2.22717156e-003
      0. 2.22717156e-003 0. 0. 0. 0. 2.22717156e-003 0. 0. 0. 0. 0. 0.
      0. 0. 0. 0. 0. 0. 2.22717156e-003 0. 0. 2.22717156e-003 0.
      6.68151490e-003 0. 0. 0. 0. 0. 0. 0. 0. 0. 0. 0. 0. 0. 0. 0. 0. 0.
      0. 0. 0. 0. 0. 0. 0. 0. 0. 0. 4.45434311e-003 0. 0. 0. 0. 0.
      2.22717156e-003 4.45434311e-003 0. 0. 0. 6.68151490e-003
      2.22717156e-003 0. 0. 0. 4.45434311e-003 0. 2.22717156e-003 0. 0.
      0. 4.45434311e-003 0. 2.22717156e-003 0. 0. 0. 0. 0.
      6.68151490e-003 4.45434311e-003 0. 0. 0. 0. 2.22717156e-003 0. 0.
      6.68151490e-003 4.45434311e-003 0. 0. 0. 0. 0. 2.22717156e-003 0.
      2.22717156e-003 4.45434311e-003 0. 0. 0. 4.45434311e-003 0.
      4.45434311e-003 0. 0. 0. 0. 6.68151490e-003 0. 0. 0. 0. 0.
      2.22717156e-003 0. 6.68151490e-003 1.55902011e-002 0. 0. 0. 0. 0.
      0. 0. 0. 2.22717156e-003 8.90868623e-003 0. 2.22717156e-003 0. 0.
      0. 0. 0. 0. 0. 0. 2.22717156e-003 0. 0. 2.22717156e-003 0.
      6.68151490e-003 3.78619172e-002 0. 0. 0. 0. 0. 2.22717156e-003 0.
      0. 0. 0. 0. 1.11358576e-002 0. 0. 2.22717156e-003 4.45434311e-003
      2.22717156e-003 0. 0. 0. 0. 0. 2.22717156e-003 0. 0. 0.
      4.45434311e-003 0. 0. 0. 0. 0. 0. 0. 0. 0. 0. 0. 0.
      4.45434311e-003 0. 0. 0. 0. 2.22717156e-003 0. 0. 0. 0. 0. 0.
      2.22717156e-003 0. 0. 0. 0. 2.22717156e-003 0. 0. 0. 0. 0. 0. 0.
      2.22717156e-003 0. 0. 2.22717156e-003 6.68151490e-003 0.
      6.68151490e-003 2.22717156e-003 0. 0. 2.22717156e-003 0. 0. 0. 0.
      0. 8.90868623e-003 0. 0. 2.22717156e-003 0. 0. 2.22717156e-003 0.
      0. 0. 0. 2.22717156e-003 0. 0. 4.45434311e-003 6.68151490e-003 0.
      0. 0. 0. 0. 0. 0. 2.22717156e-003 0. 0.</_>
    <_>
      0. 0. 0. 0. 0. 0. 6.67938916e-003 2.86259549e-003 0. 0. 0. 0. 0.
      9.54198476e-004 0. 0. 0. 0. 0. 4.77099232e-003 0. 0. 0. 0.
      1.90839695e-003 1.90839695e-003 9.54198476e-004 2.86259549e-003
      9.54198476e-004 0. 9.54198476e-004 0. 0. 9.54198476e-004 0. 0. 0.
      2.86259549e-003 0. 2.86259549e-003 0. 7.63358781e-003 0. 0.
      1.52671756e-002 0. 0. 9.54198476e-004 1.90839695e-003 0. 0.
      9.54198476e-004 3.81679391e-003 0. 0. 0. 0. 0. 0. 0. 0. 0. 0.
      1.90839695e-003 0. 5.72519097e-003 4.77099232e-003 0.
      2.86259549e-003 1.90839695e-003 0. 9.54198476e-004 0. 0.
      1.90839695e-003 9.54198476e-004 9.54198476e-004 0. 0. 0. 0. 0. 0.
      0. 9.54198476e-004 0. 2.86259549e-003 9.54198476e-004 0. 0.
      2.86259549e-003 1.90839695e-003 0. 5.72519097e-003 1.90839695e-003
      0. 9.54198476e-004 0. 0. 0. 9.54198476e-004 0. 0. 0.
      2.86259549e-003 1.90839695e-003 0. 4.77099232e-003 0. 0. 0. 0. 0.
      0. 0. 0. 2.86259549e-003 0. 0. 9.54198476e-004 0. 0.
      1.90839695e-003 9.54198476e-004 0. 9.54198476e-004 0.
      9.54198465e-003 0. 1.90839695e-003 2.86259549e-003 0. 0.
      3.81679391e-003 0. 0. 0. 4.77099232e-003 9.54198476e-004
      9.54198476e-004 6.67938916e-003 1.90839695e-003 0. 5.72519097e-003
      0. 9.54198476e-004 0. 9.54198476e-004 9.54198476e-004 0. 0.
      9.54198476e-004 0. 2.86259549e-003 0. 9.54198476e-004 0.
      9.54198476e-004 0. 9.54198476e-004 1.24045806e-002 0.
      9.54198476e-004 0. 0. 0. 0. 1.90839695e-003 0. 0. 0. 0. 0.
      1.90839695e-003 0. 3.81679391e-003 0. 0. 0. 9.54198476e-004 0.
      9.54198476e-004 0. 0. 3.81679391e-003 0. 9.54198476e-004
      4.77099232e-003 0. 9.54198476e-004 0. 1.90839695e-003 0. 0. 0.
      2.86259549e-003 0. 0. 0. 1.90839695e-003 0. 0. 0. 9.54198476e-004
      9.54198476e-004 0. 0. 0. 1.24045806e-002 0. 0. 0. 0. 0. 0. 0. 0.
      9.54198476e-004 9.54198476e-004 0. 0. 9.54198476e-004
      1.90839695e-003 0. 0. 9.54198476e-004 0. 0. 9.54198476e-004
      4.77099232e-003 1.90839695e-003 9.54198476e-004 0. 9.54198476e-004
      1.90839695e-003 0. 0. 1.90839695e-003 0. 0. 1.90839695e-003 0.
      9.54198476e-004 3.81679391e-003 1.90839695e-003 0. 0.
      9.54198476e-004 0. 9.54198476e-004 0. 9.54198476e-004
      9.54198476e-004 0. 0. 1.90839695e-003 0. 0. 0. 9.54198476e-004 0.
      1.90839695e-003 4.77099232e-003 0. 0. 9.54198476e-004 0.
      3.81679391e-003 0. 0. 0. 0. 3.81679391e-003 2.86259549e-003
      1.90839695e-003 9.54198476e-004 1.90839695e-003 2.86259549e-003 0.
      0. 3.81679391e-003 0. 0. 0. 0. 1.90839695e-003 0. 2.86259549e-003
      0. 1.90839695e-003 1.81297716e-002 0. 1.90839695e-003
      9.54198476e-004 0. 0. 9.54198476e-004 1.90839695e-003 0. 0.
      9.54198476e-004 0. 9.54198476e-004 9.54198476e-004 9.54198476e-004
      0. 0. 0. 0. 9.54198476e-004 5.72519097e-003 1.90839695e-003
      2.86259549e-003 2.86259549e-003 0. 0. 9.54198476e-004 0.
      2.86259549e-003 0. 0. 9.54198476e-004 3.81679391e-003 0. 0. 0. 0.
      0. 6.67938916e-003 0. 0. 0. 0. 0. 1.90839695e-003 0. 0. 0.
      3.81679391e-003 1.90839695e-003 9.54198476e-004 9.54198476e-004
      9.54198476e-004 2.86259549e-003 0. 0. 0. 0. 0. 1.90839695e-003
      3.81679391e-003 9.54198476e-004 0. 9.54198476e-004 1.90839695e-003
      3.81679391e-003 0. 0. 1.90839695e-003 3.81679391e-003 0.
      1.90839695e-003 0. 4.77099232e-003 4.77099232e-003 9.54198476e-004
      4.77099232e-003 9.54198476e-004 0. 0. 3.81679391e-003 0. 0. 0. 0.
      9.54198476e-004 9.54198476e-004 9.54198476e-004 9.54198476e-004 0.
      0. 0. 0. 0. 0. 2.86259549e-003 0. 0. 0. 9.54198476e-004 0. 0.
      9.54198476e-004 0. 0. 9.54198476e-004 9.54198476e-004
      5.72519097e-003 1.90839695e-003 0. 0. 0. 0. 9.54198476e-004 0.
      9.54198476e-004 0. 0. 0. 0. 1.90839695e-003 0. 0. 0. 0.
      1.90839695e-003 7.63358781e-003 0. 0. 0. 0. 1.90839695e-003 0.
      9.54198476e-004 9.54198476e-004 1.90839695e-003 1.90839695e-003 0.
      3.81679391e-003 9.54198476e-004 0. 0. 9.54198476e-004
      9.54198476e-004 0. 0. 0. 0. 0. 9.54198476e-004 9.54198476e-004 0.
      9.54198465e-003 9.54198476e-004 8.58778600e-003 0. 2.86259549e-003
      4.77099232e-003 0. 0. 0. 2.86259549e-003 2.86259549e-003 0. 0.
      8.58778600e-003 0. 0. 9.54198476e-004 0. 9.54198476e-004
      1.90839695e-003 3.81679391e-003 9.54198476e-004 0. 0. 0. 0. 0. 0.
      0. 3.81679391e-003 0. 0. 9.54198476e-004 9.54198476e-004
      2.86259549e-003 0. 0. 0. 0. 1.90839695e-003 0. 0. 0. 0. 0. 0.
      9.54198476e-004 0. 1.90839695e-003 0. 0. 1.90839695e-003 0. 0. 0.
      9.54198476e-004 0. 0. 0. 0. 0. 0. 5.72519097e-003 9.54198476e-004
      0. 9.54198476e-004 0. 0. 0. 9.54198476e-004 4.77099232e-003 0. 0.
      0. 3.81679391e-003 0. 0. 0. 8.58778600e-003 1.52671756e-002 0. 0.
      5.72519097e-003 9.54198476e-004 9.54198476e-004 1.90839695e-003 0.
      9.54198476e-004 0. 9.54198476e-004 2.86259549e-003 1.90839695e-003
      0. 0. 1.90839695e-003 1.90839695e-003 0. 0. 9.54198476e-004
      9.54198476e-004 0. 0. 9.54198476e-004 0. 0. 0. 0. 0.
      9.54198476e-004 0. 0. 2.86259549e-003 3.81679391e-003
      9.54198476e-004 7.63358781e-003 9.54198476e-004 1.90839695e-003
      2.86259549e-003 1.90839695e-003 0. 0. 0. 9.54198476e-004
      9.54198476e-004 0. 9.54198476e-004 0. 1.90839695e-003 0. 0. 0. 0.
      9.54198476e-004 0. 9.54198476e-004 1.90839695e-003 9.54198476e-004
      0. 2.86259549e-003 0. 0. 0. 0. 6.67938916e-003 0. 0. 0. 0. 0.
      4.77099232e-003 9.54198476e-004 0. 0. 7.63358781e-003 0. 0. 0.
      7.63358781e-003 0. 0. 9.54198476e-004 0. 0. 0. 0. 9.54198476e-004
      0. 0. 9.54198476e-004 1.90839695e-003 0. 1.24045806e-002 0. 0.
      9.54198476e-004 9.54198476e-004 9.54198476e-004 0. 0. 0. 0. 0. 0.
      0. 0. 0. 9.54198476e-004 0. 0. 0. 0. 0. 9.54198476e-004 0. 0. 0.
      0. 0. 0. 0. 9.54198476e-004 0. 0. 0. 1.90839695e-003 0. 0.
      1.24045806e-002 0. 1.90839695e-003 0. 0. 0. 9.54198465e-003
      9.54198476e-004 0. 0. 9.54198476e-004 9.54198465e-003 0. 0. 0. 0.
      9.54198476e-004 0. 0. 0. 0. 1.90839695e-003 9.54198476e-004 0. 0.
      3.81679391e-003 0. 3.81679391e-003 1.90839695e-003 5.72519097e-003
      0. 0. 0. 0. 9.54198476e-004 0. 1.81297716e-002 9.54198476e-004 0.
      0. 9.54198476e-004 0. 0. 0. 0. 9.54198476e-004 0. 0. 0. 0.
      2.86259549e-003 2.86259549e-003 1.90839695e-003 0. 0.
      9.54198476e-004 0. 2.86259549e-003 3.81679391e-003 0. 0.
      9.54198476e-004 9.54198476e-004 0. 1.90839695e-003 0. 0. 0.
      9.54198476e-004 0. 0. 1.90839695e-003 0. 9.54198476e-004 0. 0.
      9.54198476e-004 9.54198476e-004 0. 0. 9.54198476e-004
      9.54198476e-004 3.81679391e-003 0. 0. 9.54198476e-004 0.
      9.54198476e-004 0. 9.54198476e-004 2.86259549e-003 0. 0. 0. 0.
      9.54198476e-004 2.86259549e-003 0. 2.86259549e-003 0. 0.
      9.54198476e-004 0. 0. 0. 2.86259549e-003 9.54198476e-004 0.
      1.90839695e-003 1.90839695e-003 0. 2.86259549e-003 9.54198476e-004
      0. 0. 0. 9.54198476e-004 0. 0. 0. 0. 2.86259549e-003
      9.54198476e-004 1.90839695e-003 0. 9.54198476e-004 9.54198476e-004
      9.54198476e-004 0. 6.67938916e-003 3.81679391e-003 0.
      1.90839695e-003 0. 0. 0. 9.54198476e-004 9.54198476e-004 0.
      9.54198476e-004 0. 9.54198476e-004 0. 0. 0. 0. 0. 9.54198476e-004
      0. 0. 0. 0. 9.54198476e-004 0. 5.72519097e-003 0. 0. 0. 0. 0.
      9.54198476e-004 0. 0. 4.77099232e-003 9.54198476e-004 0.
      9.54198476e-004 9.54198476e-004 0. 0. 0. 0. 0. 0. 0. 0.
      1.90839695e-003 0. 9.54198476e-004 3.81679391e-003 1.90839695e-003
      0. 0. 0. 1.71755720e-002 9.54198476e-004 0. 0. 3.81679391e-003
      9.54198476e-004 0. 1.90839695e-003 0. 0. 0. 0. 0. 1.90839695e-003
      0. 0. 1.90839695e-003 0. 9.54198476e-004 1.90839695e-003 0. 0.
      7.63358781e-003 2.86259549e-003 0. 0. 9.54198476e-004
      9.54198476e-004 0. 0. 0. 0. 0. 0. 0. 0. 0. 1.90839695e-003 0. 0.
      0. 0. 0. 9.54198465e-003 9.54198476e-004 2.86259549e-003 0.
      9.54198476e-004 0. 0. 0. 9.54198476e-004 9.54198476e-004 0. 0.
      9.54198476e-004 0. 9.54198476e-004 0. 4.77099232e-003
      1.52671756e-002 9.54198476e-004 1.90839695e-003 9.54198476e-004
      9.54198476e-004 0. 0. 0. 0. 0. 0. 0. 0. 9.54198476e-004 0. 0. 0.
      0. 0. 9.54198476e-004 0. 0. 0. 1.90839695e-003 0. 0.
      9.54198476e-004 3.81679391e-003 0. 0. 0. 0. 0. 0. 2.86259549e-003
      1.90839695e-003 0. 9.54198476e-004 0. 0. 0. 0. 0. 0. 0. 0.
      9.54198476e-004 9.54198476e-004 0. 0. 0. 0. 0. 0. 0. 0.
      1.90839695e-003 0. 0. 0. 9.54198476e-004 0. 9.54198476e-004
      4.77099232e-003 1.90839695e-003 0. 0. 1.90839695e-003 0.
      1.90839695e-003 0. 1.90839695e-003 1.90839695e-003 0.
      1.90839695e-003 3.81679391e-003 0. 0. 0. 9.54198476e-004
      2.86259549e-003 9.54198476e-004 0. 0. 0. 0. 0. 0. 0. 0. 0. 0. 0.
      0. 0. 9.54198476e-004 1.90839695e-003 0. 9.54198476e-004
      2.86259549e-003 0. 2.86259549e-003 0. 0. 0. 0. 2.86259549e-003</_>
    <_>
      0. 0. 3.46020772e-003 0. 0. 0. 0. 0. 0. 0. 0. 0. 1.73010386e-003
      3.46020772e-003 0. 0. 0. 0. 0. 5.19031147e-003 3.46020772e-003
      1.73010386e-003 3.46020772e-003 0. 1.73010386e-003 1.73010386e-003
      1.73010386e-003 5.19031147e-003 0. 0. 1.73010386e-003 0. 0. 0. 0.
      1.73010386e-003 3.46020772e-003 0. 0. 1.73010386e-003
      3.46020772e-003 0. 0. 1.73010386e-003 1.73010386e-003
      5.19031147e-003 0. 0. 1.73010386e-003 0. 0. 0. 0. 0. 0. 0. 0.
      3.46020772e-003 0. 1.73010386e-003 0. 5.19031147e-003
      1.73010386e-003 0. 6.92041544e-003 6.92041544e-003 0. 0.
      1.73010386e-003 1.73010386e-003 5.19031147e-003 3.46020772e-003
      1.73010386e-003 0. 3.46020772e-003 0. 1.73010386e-003 0. 0. 0. 0.
      0. 0. 0. 1.21107269e-002 1.03806229e-002 0. 3.46020772e-003
      1.73010386e-003 0. 0. 1.73010386e-003 1.73010386e-003 0.
      5.19031147e-003 0. 3.46020772e-003 6.92041544e-003 0. 0.
      1.73010386e-003 0. 0. 0. 1.73010386e-003 0. 0. 0. 0. 0.
      3.46020772e-003 0. 0. 0. 0. 5.19031147e-003 0. 5.19031147e-003 0.
      1.73010386e-003 0. 1.73010386e-003 0. 0. 0. 0. 3.46020772e-003
      6.92041544e-003 3.46020772e-003 0. 1.73010386e-003 0. 0.
      5.19031147e-003 1.73010386e-003 0. 0. 1.73010386e-003
      5.19031147e-003 1.73010386e-003 0. 1.73010386e-003 0. 0. 0.
      1.73010386e-003 0. 0. 0. 0. 0. 0. 0. 6.92041544e-003 0.
      1.73010386e-003 0. 1.73010386e-003 6.92041544e-003 8.65051895e-003
      0. 0. 0. 0. 1.73010386e-003 5.19031147e-003 5.19031147e-003 0. 0.
      0. 0. 0. 0. 0. 0. 3.46020772e-003 1.73010386e-003 1.73010386e-003
      0. 0. 0. 0. 0. 0. 6.92041544e-003 0. 0. 0. 1.73010386e-003
      1.73010386e-003 1.73010386e-003 0. 0. 0. 1.73010386e-003
      1.73010386e-003 0. 0. 0. 5.19031147e-003 0. 0. 0. 1.73010386e-003
      1.73010386e-003 0. 1.73010386e-003 0. 1.90311428e-002
      1.73010386e-003 0. 0. 0. 1.73010386e-003 0. 0. 0. 0.
      6.92041544e-003 0. 0. 0. 0. 0. 0. 1.73010386e-003 0. 0.
      1.73010386e-003 0. 1.73010386e-003 1.73010386e-003 1.73010386e-003
      0. 0. 0. 1.73010386e-003 0. 1.73010386e-003 0. 0. 0.
      3.46020772e-003 0. 0. 0. 0. 0. 1.73010386e-003 1.73010386e-003
      1.73010386e-003 0. 3.46020772e-003 0. 0. 0. 0. 0. 0. 0. 0.
      5.19031147e-003 0. 0. 0. 1.73010386e-003 0. 5.19031147e-003 0. 0.
      0. 3.46020772e-003 3.46020772e-003 1.73010386e-003 0. 0. 0. 0. 0.
      0. 1.73010386e-003 0. 0. 0. 0. 0. 3.46020772e-003 1.73010386e-003
      0. 1.73010386e-003 5.19031147e-003 0. 1.73010386e-003 0. 0. 0. 0.
      0. 0. 0. 3.46020772e-003 0. 0. 0. 0. 0. 1.73010386e-003 0. 0.
      3.46020772e-003 0. 0. 1.73010386e-003 0. 0. 0. 6.92041544e-003
      1.73010386e-003 3.46020772e-003 0. 0. 0. 0. 0. 0. 0. 0.
      1.73010386e-003 8.65051895e-003 0. 1.73010386e-003 0. 0.
      1.73010386e-003 1.73010386e-003 0. 3.46020772e-003 0.
      1.73010386e-003 0. 0. 0. 0. 3.46020772e-003 1.73010386e-003 0. 0.
      0. 0. 0. 0. 0. 0. 3.46020772e-003 3.46020772e-003 0. 0. 0.
      3.46020772e-003 0. 0. 1.73010386e-003 1.73010386e-003 0.
      1.73010386e-003 0. 1.73010386e-003 5.19031147e-003 0. 0. 0.
      1.73010386e-003 0. 0. 1.73010386e-003 0. 0. 0. 0. 0. 0. 0.
      1.73010386e-003 1.73010386e-003 1.73010386e-003 0. 0. 0.
      1.73010386e-003 0. 1.73010386e-003 0. 1.73010386e-003 0. 0.
      3.46020772e-003 0. 0. 3.46020772e-003 0. 0. 0. 3.46020772e-003
      1.73010386e-003 0. 0. 5.19031147e-003 0. 5.19031147e-003 0.
      1.73010386e-003 0. 3.46020772e-003 0. 1.73010386e-003 0. 0. 0.
      1.73010386e-003 0. 0. 0. 0. 1.73010386e-003 1.73010386e-003 0. 0.
      0. 1.73010386e-003 0. 0. 3.46020772e-003 1.73010386e-003 0. 0. 0.
      0. 0. 0. 0. 0. 0. 1.38408309e-002 0. 0. 0. 6.92041544e-003
      1.73010386e-003 0. 0. 0. 0. 0. 0. 0. 0. 0. 0. 0. 0.
      1.73010386e-003 1.73010386e-003 0. 3.46020772e-003 1.73010386e-003
      0. 0. 0. 0. 1.73010386e-003 1.73010386e-003 0. 0. 1.73010386e-003
      3.46020772e-003 0. 3.46020772e-003 0. 0. 3.46020772e-003 0.
      1.73010386e-003 0. 0. 0. 3.46020772e-003 0. 0. 0. 0. 0. 0. 0. 0.
      1.73010386e-003 0. 1.73010386e-003 0. 0. 0. 0. 1.73010386e-003
      1.73010386e-003 0. 1.73010386e-003 5.19031147e-003 1.73010386e-003
      1.73010386e-003 0. 1.73010386e-003 0. 0. 1.73010386e-003 0.
      5.19031147e-003 0. 1.73010386e-003 0. 0. 0. 1.73010386e-003
      8.65051895e-003 0. 0. 0. 0. 1.73010386e-003 3.46020772e-003 0.
      1.73010386e-003 0. 0. 0. 1.73010386e-003 0. 3.46020772e-003
      1.73010386e-003 0. 0. 1.73010386e-003 5.19031147e-003 0.
      1.73010386e-003 0. 0. 1.73010386e-003 0. 0. 0. 1.73010386e-003 0.
      0. 0. 0. 0. 1.73010386e-003 6.92041544e-003 0. 1.73010386e-003 0.
      1.73010386e-003 0. 0. 1.73010386e-003 0. 1.73010386e-003 0. 0. 0.
      0. 1.73010386e-003 0. 0. 0. 1.73010386e-003 3.46020772e-003 0. 0.
      0. 0. 1.73010386e-003 0. 0. 0. 0. 3.46020772e-003 0. 0. 0.
      1.73010386e-003 1.73010386e-003 1.73010386e-003 1.73010386e-003 0.
      1.73010386e-003 0. 3.46020772e-003 0. 0. 1.73010386e-003 0. 0. 0.
      1.73010386e-003 0. 0. 1.73010386e-003 1.73010386e-003
      3.46020772e-003 0. 0. 1.73010386e-003 0. 0. 1.73010386e-003 0.
      3.46020772e-003 1.73010386e-003 0. 1.73010386e-003 1.73010386e-003
      3.46020772e-003 0. 0. 0. 1.73010386e-003 0. 0. 0. 0. 0. 0. 0. 0.
      0. 3.46020772e-003 0. 1.73010386e-003 0. 1.73010386e-003
      1.73010386e-003 0. 0. 5.19031147e-003 0. 1.73010386e-003 0. 0. 0.
      0. 1.73010386e-003 0. 0. 0. 1.73010386e-003 0. 0. 0.
      1.73010386e-003 3.46020772e-003 0. 0. 0. 3.46020772e-003 0. 0.
      1.73010386e-003 0. 0. 1.73010386e-003 1.73010386e-003 0.
      1.73010386e-003 3.46020772e-003 3.46020772e-003 0. 1.73010386e-003
      3.46020772e-003 0. 0. 1.73010386e-003 0. 0. 0. 0. 0.
      5.19031147e-003 1.73010386e-003 5.19031147e-003 0. 0.
      3.46020772e-003 0. 0. 5.19031147e-003 0. 0. 0. 0. 1.73010386e-003
      0. 1.73010386e-003 3.46020772e-003 6.92041544e-003 1.73010386e-003
      0. 0. 0. 0. 0. 1.73010386e-003 1.73010386e-003 0. 0. 0. 0. 0.
      3.46020772e-003 0. 3.46020772e-003 0. 0. 0. 0. 0. 0. 0.
      1.73010386e-003 0. 5.19031147e-003 0. 0. 0. 0. 1.73010386e-003 0.
      0. 0. 0. 3.46020772e-003 1.73010386e-003 0. 6.92041544e-003
      1.73010386e-003 1.73010386e-003 1.73010386e-003 0. 0. 0.
      1.73010386e-003 0. 0. 0. 1.73010386e-003 0. 0. 0. 0. 0.
      1.73010386e-003 1.73010386e-003 0. 1.73010386e-003 0. 0. 0. 0. 0.
      0. 0. 1.73010386e-003 1.73010386e-003 0. 1.73010386e-003
      1.73010386e-003 0. 0. 0. 1.73010386e-003 3.46020772e-003 0. 0. 0.
      1.73010386e-003 0. 0. 3.46020772e-003 0. 0. 3.46020772e-003 0. 0.
      0. 0. 0. 0. 1.73010386e-003 1.73010386e-003 0. 0. 0. 0. 0. 0. 0.
      0. 0. 0. 3.46020772e-003 0. 0. 0. 0. 0. 0. 3.46020772e-003 0. 0.
      0. 0. 1.73010386e-003 5.19031147e-003 1.73010386e-003 0. 0. 0. 0.
      3.46020772e-003 3.46020772e-003 0. 0. 1.73010386e-003 0. 0. 0.
      1.03806229e-002 0. 1.73010386e-003 0. 0. 3.46020772e-003 0. 0. 0.
      0. 0. 1.73010386e-003 1.73010386e-003 0. 0. 0. 0. 6.92041544e-003
      0. 0. 1.73010386e-003 0. 0. 0. 0. 0. 0. 0. 0. 0. 0.
      3.46020772e-003 0. 1.73010386e-003 8.65051895e-003 0.
      1.73010386e-003 0. 0. 0. 1.73010386e-003 0. 1.73010386e-003 0.
      1.73010386e-003 1.73010386e-003 0. 1.73010386e-003 0.
      1.73010386e-003 1.73010386e-003 0. 1.73010386e-003 3.46020772e-003
      0. 0. 0. 6.92041544e-003 3.46020772e-003 5.19031147e-003
      6.92041544e-003 0. 0. 0. 1.73010386e-003 0. 0. 0. 0. 0.
      1.73010386e-003 1.73010386e-003 0. 0. 0. 0. 0. 0. 0.
      3.46020772e-003 0. 0. 0. 1.73010386e-003 0. 0. 0. 0.
      1.73010386e-003 0. 0. 0. 0. 1.73010386e-003 0. 3.46020772e-003 0.
      0. 0. 0. 0. 1.73010386e-003 0. 1.73010386e-003 0. 1.73010386e-003
      0. 0. 0. 0. 0. 0. 0. 1.73010386e-003 0. 0. 3.46020772e-003 0. 0.
      0. 0. 0. 0. 0. 0. 0. 0. 0. 0. 1.73010386e-003 1.73010386e-003
      1.73010386e-003 0. 3.46020772e-003 0. 1.73010386e-003 0. 0. 0. 0.
      0. 1.73010386e-003 3.46020772e-003 1.73010386e-003 0.
      1.73010386e-003 0. 0. 0. 8.65051895e-003 0. 0. 0. 0.
      1.73010386e-003 5.19031147e-003 0. 0. 0. 0. 1.73010386e-003 0. 0.
      0. 1.73010386e-003</_>
    <_>
      6.74763811e-004 2.02429155e-003 0. 2.69905524e-003 2.69905524e-003
      4.72334679e-003 6.74763811e-004 0. 1.34952762e-003 2.69905524e-003
      1.34952762e-003 1.34952762e-003 0. 2.02429155e-003 0.
      6.74763811e-004 0. 1.34952762e-003 6.74763811e-004 6.74763811e-004
      0. 2.02429155e-003 3.37381894e-003 0. 1.34952762e-003
      6.74763811e-004 6.74763811e-004 2.02429155e-003 0. 0. 0.
      2.69905524e-003 0. 0. 3.37381894e-003 6.74763811e-004
      2.69905524e-003 0. 0. 2.02429155e-003 4.04858310e-003
      6.07287418e-003 4.72334679e-003 0. 0. 6.74763811e-004 0. 0.
      4.04858310e-003 6.74763811e-004 1.34952762e-003 6.74763811e-004
      6.74763811e-004 0. 6.74763811e-004 0. 0. 0. 0. 4.04858310e-003 0.
      0. 1.34952762e-003 6.74763811e-004 0. 6.74763811e-004
      1.34952762e-003 1.34952762e-003 0. 0. 0. 1.34952762e-003 0.
      6.74763811e-004 6.74763811e-004 2.69905524e-003 2.02429155e-003
      1.34952762e-003 0. 2.69905524e-003 3.37381894e-003 2.02429155e-003
      6.74763811e-004 2.69905524e-003 0. 4.04858310e-003 3.37381894e-003
      0. 1.34952762e-003 6.74763811e-004 0. 1.34952762e-003 0. 0. 0. 0.
      4.72334679e-003 6.74763811e-004 2.02429155e-003 0. 0. 0.
      1.34952762e-003 0. 6.74763811e-004 0. 0. 0. 6.74763811e-004 0.
      4.04858310e-003 6.74763811e-004 0. 4.04858310e-003 1.34952762e-003
      2.02429155e-003 6.74763811e-004 6.74763811e-004 0. 6.74763811e-004
      0. 8.09716620e-003 0. 0. 6.74763811e-004 6.74763811e-004 0.
      6.07287418e-003 0. 0. 0. 6.74763811e-004 1.48448041e-002 0.
      6.74763811e-004 1.34952762e-003 6.74763811e-004 0. 4.04858310e-003
      6.74763811e-004 0. 0. 0. 6.74763811e-004 1.34952762e-003
      6.74763811e-004 0. 0. 0. 0. 0. 6.74763811e-004 0. 6.74763811e-004
      0. 2.02429155e-003 6.74763811e-004 6.74763811e-004 1.34952762e-003
      0. 0. 0. 2.02429155e-003 2.02429155e-003 0. 6.74763811e-004 0. 0.
      0. 0. 6.74763811e-004 1.34952762e-003 0. 1.34952762e-003 0. 0.
      6.74763811e-004 1.34952762e-003 1.34952762e-003 2.69905524e-003
      6.74763811e-004 6.74763811e-004 5.39811049e-003 1.34952762e-003 0.
      6.74763811e-004 1.34952762e-003 6.74763811e-004 1.34952762e-003 0.
      0. 0. 1.34952762e-003 0. 0. 3.37381894e-003 6.74763811e-004
      6.74763811e-004 6.74763811e-004 0. 0. 0. 2.69905524e-003 0. 0.
      3.37381894e-003 4.04858310e-003 1.34952762e-003 3.50877196e-002
      6.74763811e-004 6.74763811e-004 6.74763811e-004 2.02429155e-003
      6.74763811e-004 0. 0. 0. 0. 6.74763811e-004 0. 0. 0. 0.
      1.34952762e-003 6.74763811e-004 0. 0. 0. 6.74763811e-004
      6.74763811e-004 3.37381894e-003 2.69905524e-003 0. 6.74763811e-004
      0. 0. 6.74763811e-004 0. 0. 0. 0. 0. 0. 0. 0. 2.69905524e-003
      6.74763811e-004 5.39811049e-003 2.02429155e-003 1.07962210e-002 0.
      1.34952762e-003 0. 0. 1.34952762e-003 6.74763811e-004
      6.74763811e-004 0. 0. 6.74763811e-004 2.02429155e-003
      6.74763811e-004 0. 1.34952762e-003 2.69905524e-003 1.34952762e-003
      6.74763811e-004 1.34952762e-003 6.74763811e-004 1.34952762e-003 0.
      6.74763811e-004 0. 0. 0. 1.34952762e-003 0. 0. 0. 0.
      1.34952762e-003 0. 6.07287418e-003 0. 0. 1.34952762e-003
      1.34952762e-003 0. 1.34952762e-003 0. 0. 0. 0. 0. 0.
      6.74763811e-004 0. 2.69905524e-003 6.74763811e-004 0. 0. 0. 0. 0.
      3.37381894e-003 1.34952762e-003 6.74763811e-004 0. 6.74763811e-004
      6.74763811e-004 6.74763811e-004 1.34952762e-003 1.34952762e-003 0.
      1.34952762e-003 6.74763811e-004 9.44669358e-003 1.34952762e-003
      6.74763811e-004 0. 6.74763811e-004 1.34952762e-003 0.
      2.02429155e-003 0. 2.02429155e-003 1.34952762e-003 0. 0. 0.
      1.34952762e-003 0. 0. 1.34952762e-003 6.74763811e-004
      4.72334679e-003 6.74763811e-004 0. 2.02429155e-003 0.
      1.34952762e-003 6.74763811e-004 0. 0. 0. 0. 0. 0. 6.74763811e-004
      1.34952762e-003 0. 0. 6.74763811e-004 0. 1.34952762e-003 0. 0. 0.
      2.02429155e-003 0. 2.02429155e-003 6.74763811e-004 6.74763811e-004
      1.34952762e-003 6.74763811e-004 6.74763811e-004 0. 0.
      6.74763811e-004 0. 0. 0. 6.74763811e-004 0. 2.02429155e-003 0.
      3.37381894e-003 2.02429155e-003 0. 2.02429155e-003 1.14709847e-002
      2.02429155e-003 0. 0. 0. 0. 6.74763811e-004 0. 1.34952762e-003 0.
      0. 0. 2.69905524e-003 0. 0. 0. 6.74763811e-004 6.74763811e-004
      4.72334679e-003 1.34952762e-003 0. 0. 4.04858310e-003
      1.34952762e-003 6.74763811e-004 5.39811049e-003 2.69905524e-003
      6.74763811e-004 6.74763811e-004 0. 1.34952762e-003 0.
      6.74763811e-004 6.74763811e-004 6.74763811e-004 0. 0.
      2.69905524e-003 0. 2.02429155e-003 0. 0. 0. 0. 3.37381894e-003 0.
      0. 6.74763811e-004 0. 2.69905524e-003 0. 0. 0. 0. 0. 0.
      6.74763811e-004 2.69905524e-003 6.74763811e-004 4.04858310e-003 0.
      2.02429155e-003 1.34952762e-003 6.74763811e-004 0. 0.
      6.74763811e-004 2.02429155e-003 0. 6.74763811e-004 0. 0. 0.
      6.74763811e-004 0. 0. 0. 6.74763811e-004 6.74763811e-004 0.
      2.02429155e-003 2.69905524e-003 0. 0. 0. 0. 0. 0. 3.37381894e-003
      4.04858310e-003 6.74763811e-004 0. 0. 0. 0. 6.74763811e-004 0.
      6.74763811e-004 0. 2.02429155e-003 4.04858310e-003 2.02429155e-003
      0. 1.34952762e-003 1.34952762e-003 6.74763811e-004 6.74763811e-004
      6.74763811e-004 0. 0. 0. 2.02429155e-003 0. 0. 1.34952762e-003 0.
      0. 0. 0. 0. 0. 1.34952762e-003 2.02429155e-003 2.02429155e-003 0.
      0. 1.48448041e-002 4.04858310e-003 0. 6.74763811e-004 0.
      1.34952762e-003 2.02429155e-003 0. 4.72334679e-003 0.
      1.34952762e-003 3.37381894e-003 6.07287418e-003 1.34952762e-003 0.
      0. 6.74763811e-004 0. 6.74763811e-004 0. 1.34952762e-003 0. 0.
      1.34952762e-003 0. 6.74763811e-004 0. 0. 6.74763811e-004
      6.74763811e-004 6.74763811e-004 0. 0. 2.69905524e-003 0. 0. 0.
      6.74763811e-004 6.74763811e-004 0. 0. 2.02429155e-003 0. 0.
      2.02429155e-003 6.74763811e-004 6.74763811e-004 1.34952762e-003 0.
      2.02429155e-003 0. 0. 0. 6.74763811e-004 1.34952762e-003
      1.34952762e-003 4.04858310e-003 6.74763811e-004 0. 0.
      1.34952762e-003 6.74763811e-004 0. 6.74763811e-004 6.74763811e-004
      0. 6.74763811e-004 2.02429155e-003 0. 1.34952762e-003 0. 0. 0.
      6.74763811e-004 0. 6.74763811e-004 1.34952762e-003 0.
      6.74763811e-004 0. 0. 6.74763811e-004 0. 1.34952762e-003 0.
      6.74763811e-004 0. 0. 8.77192989e-003 0. 2.02429155e-003 0.
      1.34952762e-003 0. 2.69905524e-003 0. 0. 1.34952762e-003
      6.74763811e-004 6.74763811e-004 2.69905524e-003 0. 2.69905524e-003
      6.74763811e-004 6.74763811e-004 1.34952762e-003 6.74763811e-004
      5.39811049e-003 0. 0. 0. 2.02429155e-003 2.69905524e-003
      3.37381894e-003 2.02429155e-003 8.77192989e-003 0. 0. 0.
      6.74763811e-004 6.74763811e-004 1.34952762e-003 0. 0.
      5.39811049e-003 1.34952762e-003 0. 0. 1.34952762e-003
      1.34952762e-003 6.74763811e-004 1.34952762e-003 0. 4.04858310e-003
      0. 0. 2.02429155e-003 1.34952762e-003 0. 3.37381894e-003 0.
      2.69905524e-003 0. 0. 1.34952762e-003 0. 0. 6.74763811e-004
      2.69905524e-003 0. 2.69905524e-003 0. 2.02429155e-003
      1.34952762e-003 0. 0. 0. 4.72334679e-003 0. 1.34952762e-003
      6.74763811e-004 0. 0. 6.74763811e-004 4.04858310e-003 0.
      1.34952762e-003 6.74763811e-004 4.72334679e-003 6.74763811e-004
      6.74763811e-004 6.74763811e-004 6.74763811e-004 6.74763811e-004
      2.69905524e-003 2.69905524e-003 6.74763811e-004 1.34952762e-003
      6.74763811e-004 6.74763811e-004 1.34952762e-003 0. 1.34952762e-003
      0. 6.74763811e-004 0. 6.74763811e-004 3.37381894e-003
      6.74763811e-004 0. 2.02429155e-003 0. 2.69905524e-003
      2.69905524e-003 0. 2.02429155e-003 2.02429155e-003 6.74763811e-004
      0. 0. 5.39811049e-003 0. 0. 0. 0. 2.69905524e-003 2.02429155e-003
      0. 6.74763811e-004 6.74763788e-003 0. 6.74763811e-004 0.
      2.02429155e-003 6.74763811e-004 6.74763811e-004 0. 6.74763811e-004
      0. 6.74763811e-004 0. 2.02429155e-003 2.02429155e-003 0. 0. 0. 0.
      2.02429155e-003 0. 1.34952762e-003 0. 2.02429155e-003 0. 0. 0.
      6.74763811e-004 6.74763811e-004 6.74763811e-004 6.07287418e-003 0.
      0. 0. 2.02429155e-003 6.74763811e-004 0. 0. 6.74763811e-004
      6.74763811e-004 0. 4.04858310e-003 0. 0. 6.74763811e-004 0.
      6.74763811e-004 6.74763811e-004 0. 0. 0. 0. 6.74763811e-004
      4.72334679e-003 0. 6.74763811e-004 0. 6.74763811e-004 0. 0.
      6.74763811e-004 0. 0. 0. 0. 0. 6.74763811e-004 1.34952762e-003
      1.34952762e-003 0. 6.74763811e-004 0. 8.09716620e-003 0.
      6.74763811e-004 3.37381894e-003 0. 0. 6.74763811e-004 0. 0.
      3.37381894e-003 0. 6.74763811e-004 0. 0. 0. 0. 0. 6.74763811e-004
      0. 0. 0. 0. 3.37381894e-003 2.02429155e-003 0. 6.74763811e-004 0.
      0. 6.74763811e-004 6.74763811e-004 0. 5.39811049e-003 0. 0.
      7.42240204e-003 2.69905524e-003 1.34952762e-003 0. 0.
      6.74763811e-004 0. 6.74763811e-004 0. 6.74763811e-004 0.
      2.02429155e-003 2.02429155e-003 0. 6.74763811e-004 2.02429155e-003
      2.69905524e-003 0. 0. 2.02429155e-003 0. 6.74763811e-004 0.
      4.04858310e-003 0. 0. 3.37381894e-003 2.02429155e-003
      6.74763811e-004 0. 0. 0. 0. 0. 5.39811049e-003 6.74763811e-004 0.
      0. 0. 0. 0. 6.74763811e-004 6.74763811e-004 0. 0. 0.
      6.74763811e-004 6.74763811e-004 0. 6.74763811e-004 1.34952762e-003
      0. 0. 1.34952762e-003 0. 0. 6.74763811e-004 0. 1.34952762e-003
      6.74763811e-004 6.74763811e-004 2.02429155e-003 6.74763811e-004
      1.34952762e-003 6.74763811e-004 6.07287418e-003 0. 0.
      1.34952762e-003 6.74763811e-004 0. 6.74763811e-004 4.04858310e-003
      6.74763811e-004 6.74763811e-004 4.04858310e-003 0. 6.74763811e-004
      0. 0. 6.74763811e-004 6.74763811e-004 6.74763811e-004 0. 0. 0. 0.
      6.74763811e-004 6.74763811e-004 0. 4.04858310e-003 2.02429155e-003
      2.69905524e-003 6.74763811e-004 2.69905524e-003 0. 0.
      6.74763811e-004 0. 0. 0. 0. 2.02429155e-003 6.74763811e-004 0. 0.
      2.69905524e-003 3.37381894e-003 0. 1.34952762e-003 0. 0. 0.
      2.69905524e-003 0. 3.37381894e-003 7.42240204e-003 0. 0. 0.
      4.04858310e-003 6.07287418e-003 6.74763811e-004 0. 0. 0. 0. 0. 0.
      0. 3.37381894e-003 6.74763811e-004 0. 1.34952762e-003
      6.74763811e-004 0. 0. 0. 1.34952762e-003 0. 2.02429155e-003 0.
      4.72334679e-003 0. 0. 0. 5.39811049e-003 0. 1.34952762e-003
      4.04858310e-003 0. 0. 0. 6.74763811e-004 0. 1.34952762e-003
      1.34952762e-003 6.74763811e-004 0. 0. 6.74763811e-004 0. 0.
      6.07287418e-003 0. 6.74763811e-004 1.34952762e-003 2.69905524e-003
      0. 6.74763811e-004 4.72334679e-003 0. 0. 2.69905524e-003 0. 0. 0.
      2.02429155e-003 0. 0.</_>
    <_>
      0. 1.90839695e-003 0. 0. 0. 0. 0. 0. 0. 0. 7.63358781e-003
      1.90839695e-003 0. 0. 0. 0. 7.63358781e-003 0. 3.81679391e-003 0.
      0. 1.90839695e-003 1.90839695e-003 0. 0. 0. 0. 1.90839695e-003
      1.90839695e-003 0. 0. 0. 0. 0. 0. 0. 1.90839695e-003 0.
      3.81679391e-003 0. 1.90839695e-003 2.48091612e-002 0. 0. 0. 0. 0.
      3.81679391e-003 0. 0. 0. 0. 0. 0. 0. 5.72519097e-003
      1.90839695e-003 5.72519097e-003 1.90839695e-003 1.90839695e-003 0.
      1.90839695e-003 0. 0. 0. 0. 0. 0. 0. 0. 0. 5.72519097e-003 0. 0.
      3.81679391e-003 1.90839695e-003 1.90839695e-003 0. 0. 0.
      1.90839695e-003 0. 0. 0. 0. 0. 0. 1.90839695e-003 1.90839695e-003
      5.72519097e-003 5.72519097e-003 0. 0. 0. 1.90839695e-003
      1.90839695e-003 7.63358781e-003 0. 0. 0. 0. 0. 0. 0.
      1.14503819e-002 0. 0. 1.90839695e-003 0. 1.90839695e-003 0. 0. 0.
      0. 0. 0. 0. 0. 0. 0. 0. 0. 0. 9.54198465e-003 0. 0.
      1.90839695e-003 3.81679391e-003 0. 0. 0. 0. 7.63358781e-003 0.
      3.81679391e-003 0. 0. 0. 0. 0. 0. 0. 0. 0. 0. 0. 0. 0. 0. 0.
      7.63358781e-003 0. 0. 0. 0. 0. 0. 0. 0. 1.90839695e-003
      5.72519097e-003 1.90839695e-003 0. 0. 0. 0. 0. 0. 0. 0. 0.
      1.90839695e-003 0. 3.81679391e-003 0. 0. 0. 0. 0. 0. 0. 0. 0. 0.
      3.81679391e-003 0. 0. 0. 0. 0. 0. 0. 0. 0. 0. 0. 0. 0. 0. 0.
      3.81679391e-003 0. 0. 0. 0. 0. 0. 0. 0. 0. 3.81679391e-003
      3.81679391e-003 0. 0. 0. 0. 0. 0. 0. 9.54198465e-003 0.
      3.81679391e-003 0. 0. 0. 0. 0. 0. 0. 3.81679391e-003 0. 0. 0. 0.
      0. 0. 0. 1.14503819e-002 0. 0. 0. 0. 0. 0. 3.81679391e-003 0. 0.
      0. 9.54198465e-003 0. 7.63358781e-003 0. 0. 0. 0. 1.90839695e-003
      0. 0. 0. 0. 0. 7.63358781e-003 0. 1.90839695e-003 0. 0. 0.
      1.90839695e-003 1.90839695e-003 0. 0. 0. 0. 1.33587783e-002 0.
      1.90839695e-003 0. 0. 0. 0. 3.81679391e-003 0. 0. 0. 0. 0. 0. 0.
      0. 0. 1.90839695e-003 1.90839695e-003 1.90839695e-003 0. 0. 0.
      3.81679391e-003 7.63358781e-003 1.90839695e-003 0. 0. 0. 0. 0. 0.
      0. 0. 0. 0. 0. 7.63358781e-003 0. 0. 0. 0. 0. 0. 0. 0. 0. 0. 0.
      3.81679391e-003 0. 0. 0. 0. 0. 1.90839695e-003 0. 1.90839695e-003
      0. 1.90839695e-003 0. 0. 0. 0. 0. 0. 0. 0. 1.90839695e-003
      5.91603070e-002 3.81679391e-003 0. 0. 0. 0. 0. 0. 0.
      1.90839695e-003 0. 0. 0. 0. 1.90839695e-003 0. 0. 0. 0. 0. 0.
      3.81679391e-003 0. 0. 0. 0. 0. 0. 0. 0. 0. 0. 0. 0. 0. 0. 0. 0.
      1.90839693e-002 0. 0. 0. 0. 0. 0. 0. 0. 0. 0. 0. 0. 0. 0. 0. 0. 0.
      0. 0. 0. 0. 0. 0. 9.54198465e-003 0. 0. 0. 0. 0. 0. 0. 0.
      1.90839695e-003 0. 0. 0. 1.90839695e-003 0. 0. 1.90839695e-003 0.
      0. 0. 0. 3.81679391e-003 0. 0. 0. 0. 0. 0. 0. 0. 0.
      3.81679391e-003 1.90839695e-003 0. 0. 0. 0. 0. 5.72519097e-003
      1.90839695e-003 5.72519097e-003 0. 0. 0. 0. 0. 5.72519097e-003
      1.90839695e-003 0. 0. 1.90839695e-003 0. 0. 0. 0. 0. 0.
      1.90839695e-003 0. 3.81679391e-003 1.90839695e-003 5.72519097e-003
      0. 1.90839695e-003 0. 0. 0. 0. 0. 0. 0. 0. 0. 0. 0. 0. 0. 0. 0.
      3.81679391e-003 0. 0. 1.90839695e-003 0. 0. 0. 0. 0. 0.
      1.90839695e-003 0. 0. 0. 1.33587783e-002 0. 1.90839695e-003 0. 0.
      0. 0. 3.81679391e-003 1.90839695e-003 0. 1.90839695e-003 0. 0. 0.
      0. 1.90839695e-003 0. 0. 0. 1.90839695e-003 0. 1.52671756e-002 0.
      1.90839695e-003 1.90839695e-003 0. 0. 1.71755720e-002 0. 0. 0. 0.
      1.90839695e-003 0. 0. 0. 0. 0. 0. 0. 1.90839695e-003
      1.90839695e-003 0. 1.90839695e-003 0. 1.90839695e-003 0. 0. 0. 0.
      0. 0. 0. 0. 0. 0. 0. 0. 0. 0. 0. 1.90839695e-003 0. 0.
      1.71755720e-002 0. 3.81679391e-003 0. 0. 1.90839695e-003 0. 0. 0.
      0. 0. 0. 0. 0. 0. 0. 0. 0. 0. 0. 0. 0. 0. 0. 5.72519097e-003 0. 0.
      1.90839695e-003 0. 2.29007639e-002 0. 0. 0. 0. 1.90839695e-003 0.
      0. 0. 3.81679391e-003 0. 0. 0. 0. 0. 0. 9.54198465e-003 0. 0. 0.
      0. 0. 0. 2.29007639e-002 3.81679391e-003 0. 0. 0. 0. 0. 0. 0. 0.
      0. 0. 0. 1.90839695e-003 0. 0. 0. 3.81679391e-003 0. 0. 0. 0.
      1.90839695e-003 0. 0. 0. 1.90839695e-003 0. 0. 0. 1.90839695e-003
      0. 0. 0. 0. 0. 1.33587783e-002 0. 0. 0. 0. 1.90839695e-003
      9.54198465e-003 1.90839695e-003 0. 0. 0. 0. 0. 1.90839695e-003 0.
      0. 0. 0. 1.90839695e-003 9.54198465e-003 0. 0. 0. 0. 0. 0. 0. 0.
      0. 1.90839695e-003 0. 0. 0. 0. 0. 0. 3.81679391e-003
      1.90839695e-003 0. 0. 0. 0. 0. 1.90839695e-003 0. 1.90839695e-003
      0. 0. 0. 0. 0. 0. 0. 0. 1.90839695e-003 0. 1.90839695e-003 0. 0.
      0. 0. 0. 0. 0. 0. 0. 0. 0. 3.81679391e-003 0. 0. 0.
      5.72519097e-003 0. 0. 0. 0. 9.54198465e-003 0. 0. 1.90839695e-003
      5.72519097e-003 0. 0. 0. 0. 0. 0. 0. 0. 3.81679391e-003 0. 0. 0.
      0. 0. 0. 1.90839695e-003 7.63358781e-003 0. 0. 0. 0. 0. 0.
      1.52671756e-002 0. 0. 0. 1.90839695e-003 0. 0. 0. 0. 0. 0. 0. 0.
      0. 1.90839695e-003 0. 5.72519097e-003 0. 0. 1.90839695e-003 0.
      1.90839695e-003 0. 0. 0. 0. 0. 0. 0. 0. 0. 0. 0. 0. 0. 0. 0. 0. 0.
      0. 0. 0. 0. 0. 0. 0. 0. 1.90839695e-003 1.90839695e-003
      1.90839695e-003 0. 0. 0. 1.90839695e-003 0. 0. 0. 0.
      1.90839695e-003 0. 0. 0. 0. 0. 0. 5.72519097e-003 0. 0. 0. 0. 0.
      0. 3.81679391e-003 0. 0. 0. 0. 0. 0. 0. 0. 1.90839695e-003 0. 0.
      0. 0. 1.90839695e-003 0. 1.90839695e-003 0. 0. 0. 0. 0. 0. 0.
      7.63358781e-003 0. 0. 0. 0. 5.72519097e-003 1.90839695e-003 0. 0.
      0. 0. 0. 0. 0. 0. 0. 1.90839695e-003 0. 0. 0. 0. 0. 0. 0. 0. 0.
      7.63358781e-003 0. 0. 0. 0. 0. 0. 0. 0. 0. 0. 3.81679391e-003
      9.54198465e-003 0. 1.90839695e-003 1.90839695e-003 0.
      1.90839695e-003 3.81679391e-003 0. 0. 0. 0. 0. 1.90839695e-003 0.
      0. 0. 0. 5.72519097e-003 3.81679391e-003 0. 0. 0. 0. 0. 0. 0. 0.
      0. 1.90839695e-003 0. 1.90839695e-003 0. 3.81679391e-003 0. 0. 0.
      0. 0. 0. 0. 0. 1.90839695e-003 0. 0. 0. 0. 0. 0. 0.
      3.81679391e-003 5.72519097e-003 0. 0. 0. 0. 0. 0. 1.90839695e-003
      0. 1.90839695e-003 0. 0. 0. 0. 0. 0. 0. 1.90839695e-003
      1.90839695e-003 4.38931286e-002 0. 1.90839695e-003 0. 0. 0. 0.
      1.90839695e-003 0. 3.05343512e-002 0. 1.90839695e-003 0. 0. 0.
      1.90839695e-003 0. 1.90839695e-003 0. 0. 0. 0. 0. 0. 0. 0. 0. 0.
      0. 0. 0. 0. 0. 3.81679391e-003 0. 0. 0. 5.72519097e-003 0. 0. 0.
      0. 0.</_>
    <_>
      0. 1.24223600e-003 0. 4.96894401e-003 0. 0. 0. 0. 0.
      2.48447200e-003 0. 0. 1.24223600e-003 0. 0. 1.24223600e-003
      1.24223600e-003 3.72670800e-003 1.24223600e-003 0. 2.48447200e-003
      1.24223600e-003 1.24223600e-003 0. 2.48447200e-003 1.24223600e-003
      0. 1.24223600e-003 0. 0. 1.24223600e-003 1.24223600e-003 0. 0.
      1.24223600e-003 1.24223600e-003 1.24223600e-003 0. 0.
      2.48447200e-003 2.48447200e-003 0. 1.24223600e-003 0. 0. 0. 0. 0.
      2.48447200e-003 0. 0. 1.24223600e-003 0. 0. 0. 2.48447200e-003 0.
      0. 1.24223600e-003 0. 0. 0. 3.72670800e-003 1.24223600e-003
      6.21118024e-003 1.24223600e-003 1.24223600e-003 0. 0. 0. 0.
      8.69565178e-003 1.24223600e-003 1.24223600e-003 0. 0.
      2.48447200e-003 0. 2.48447200e-003 0. 0. 0. 0. 1.24223600e-003 0.
      0. 7.45341601e-003 0. 0. 0. 0. 1.24223600e-003 0. 1.24223600e-003
      3.72670800e-003 0. 3.72670800e-003 0. 1.24223600e-003 0. 0. 0. 0.
      0. 2.48447200e-003 1.24223600e-003 0. 4.96894401e-003 0. 0. 0.
      2.48447200e-003 0. 1.24223600e-003 1.24223600e-003 0. 0.
      2.48447200e-003 0. 0. 2.48447200e-003 1.24223600e-003 0. 0. 0.
      2.48447200e-003 0. 1.49068320e-002 0. 3.72670800e-003 0.
      1.24223600e-003 0. 0. 0. 3.72670800e-003 2.48447200e-003 0.
      3.72670800e-003 1.24223600e-003 0. 0. 3.72670800e-003 0. 0.
      1.24223600e-003 1.24223600e-003 0. 1.24223600e-003 0. 0. 0. 0.
      1.24223600e-003 0. 0. 2.48447200e-003 0. 0. 2.48447200e-003
      1.24223600e-003 0. 0. 1.24223600e-003 0. 2.48447200e-003
      3.72670800e-003 1.24223600e-003 6.21118024e-003 0. 0.
      1.24223600e-003 0. 0. 0. 0. 0. 0. 1.24223600e-003 0.
      1.24223600e-003 0. 2.48447200e-003 0. 1.24223600e-003 0.
      2.48447200e-003 0. 2.48447200e-003 1.24223600e-003 0. 0.
      2.48447200e-003 0. 0. 0. 0. 3.72670800e-003 2.48447200e-003
      1.24223600e-003 0. 0. 0. 0. 1.24223600e-003 3.72670800e-003
      4.96894401e-003 1.24223600e-003 0. 0. 0. 0. 0. 0. 0.
      2.48447200e-003 0. 0. 2.48447200e-003 0. 1.24223600e-003 0. 0. 0.
      0. 0. 1.24223600e-003 1.24223600e-003 1.24223600e-003
      1.24223600e-003 4.96894401e-003 2.48447200e-003 0. 0. 0. 0.
      2.48447200e-003 0. 0. 1.24223600e-003 3.72670800e-003 0.
      1.24223600e-003 2.48447200e-003 0. 0. 2.48447200e-003
      3.72670800e-003 0. 1.24223600e-003 0. 0. 0. 0. 0. 7.45341601e-003
      0. 0. 0. 2.48447200e-003 2.48447200e-003 0. 1.24223600e-003
      1.24223600e-003 2.48447200e-003 0. 1.24223600e-003 2.48447200e-003
      3.72670800e-003 0. 1.24223600e-003 0. 3.72670800e-003
      1.24223600e-003 0. 1.24223600e-003 0. 0. 0. 0. 1.24223600e-003
      1.24223600e-003 1.24223600e-003 0. 6.21118024e-003 0.
      4.96894401e-003 1.24223600e-003 0. 0. 0. 0. 2.48447200e-003 0. 0.
      0. 0. 0. 1.24223600e-003 0. 2.48447200e-003 0. 0. 0.
      1.24223600e-003 0. 0. 0. 0. 0. 1.24223600e-003 0. 0.
      3.72670800e-003 0. 1.24223600e-003 3.72670800e-003 0. 0. 0. 0. 0.
      0. 1.24223600e-003 1.24223600e-003 2.48447200e-003 0. 0. 0. 0.
      6.21118024e-003 0. 1.24223600e-003 0. 0. 1.24223600e-003
      3.72670800e-003 0. 4.96894401e-003 1.24223600e-003 0. 0.
      6.21118024e-003 0. 0. 0. 1.24223600e-003 1.24223600e-003
      1.24223600e-003 0. 0. 4.96894401e-003 1.24223600e-003
      1.24223600e-003 2.48447200e-003 0. 0. 0. 2.48447200e-003
      1.24223600e-003 0. 0. 0. 0. 0. 0. 1.24223600e-003 0. 0. 0.
      1.24223600e-003 1.24223600e-003 3.72670800e-003 0. 3.72670800e-003
      3.72670800e-003 1.24223600e-003 2.48447200e-003 2.48447200e-003 0.
      1.24223600e-003 1.24223600e-003 0. 1.24223600e-003 2.48447200e-003
      0. 7.45341601e-003 0. 0. 0. 3.72670800e-003 3.72670800e-003 0.
      1.24223600e-003 1.24223600e-003 1.24223600e-003 1.11801242e-002
      2.48447200e-003 1.24223600e-003 1.24223600e-003 0. 0. 0. 0. 0.
      3.72670800e-003 6.21118024e-003 1.24223600e-003 9.93788801e-003
      1.24223600e-003 1.24223600e-003 0. 0. 0. 1.24223600e-003
      2.48447200e-003 0. 0. 1.24223600e-003 1.24223600e-003 0. 0. 0. 0.
      2.48447200e-003 0. 0. 0. 0. 2.48447200e-003 0. 0. 1.24223600e-003
      0. 0. 0. 0. 3.72670800e-003 0. 2.48447200e-003 0. 1.24223600e-003
      1.24223600e-003 1.24223600e-003 2.48447200e-003 0. 1.24223600e-003
      3.72670800e-003 0. 0. 2.48447200e-003 0. 0. 1.24223600e-003
      1.24223600e-003 1.24223600e-003 0. 0. 2.48447200e-003 0.
      1.24223600e-003 0. 0. 0. 0. 1.24223600e-003 2.48447200e-003
      2.48447200e-003 0. 1.24223600e-003 2.48447200e-003 0.
      1.24223600e-003 1.24223600e-003 1.24223600e-003 1.24223600e-003 0.
      0. 0. 3.72670800e-003 3.72670800e-003 1.24223600e-003 0. 0. 0. 0.
      0. 0. 0. 0. 0. 1.24223600e-003 2.48447200e-003 0. 1.24223600e-003
      0. 0. 0. 0. 1.24223600e-003 1.24223600e-003 0. 2.48447200e-003 0.
      1.24223600e-003 0. 0. 3.72670800e-003 0. 0. 0. 2.48447200e-003
      1.24223600e-003 0. 0. 0. 0. 0. 0. 0. 1.24223600e-003 0.
      1.24223600e-003 0. 6.21118024e-003 0. 2.48447200e-003
      1.24223600e-003 1.24223600e-003 6.21118024e-003 0. 0. 0.
      1.24223600e-003 1.24223600e-003 2.48447200e-003 2.48447200e-003 0.
      0. 0. 1.24223600e-003 1.24223600e-003 1.24223600e-003
      4.96894401e-003 1.24223600e-003 3.72670800e-003 0. 2.48447200e-003
      0. 1.24223600e-003 0. 2.48447200e-003 0. 2.48447200e-003 0.
      1.24223600e-003 0. 0. 0. 0. 0. 0. 0. 2.48447200e-003 0.
      2.48447200e-003 0. 4.96894401e-003 1.24223600e-003 0.
      1.24223600e-003 1.24223600e-003 0. 3.72670800e-003 0.
      1.24223600e-003 0. 1.24223600e-003 0. 2.48447200e-003 0.
      1.24223600e-003 1.24223600e-003 0. 0. 1.24223600e-003 0.
      1.24223600e-003 2.48447200e-003 1.24223600e-003 0. 1.24223600e-003
      1.24223600e-003 1.24223600e-003 6.21118024e-003 0. 0. 0. 0. 0.
      2.48447200e-003 1.24223600e-003 0. 0. 1.24223600e-003 0. 0. 0. 0.
      1.24223600e-003 0. 1.24223600e-003 0. 1.49068320e-002
      1.24223600e-003 0. 1.24223600e-003 1.24223600e-003 1.24223600e-003
      2.48447200e-003 0. 2.48447200e-003 6.21118024e-003 1.24223600e-003
      1.24223600e-003 1.24223600e-003 7.45341601e-003 0. 1.24223600e-003
      1.24223600e-003 0. 2.48447200e-003 1.24223600e-003 0.
      2.48447200e-003 0. 0. 0. 0. 0. 0. 0. 1.24223600e-003
      1.24223600e-003 1.24223600e-003 0. 0. 7.45341601e-003 0.
      6.21118024e-003 0. 1.24223600e-003 1.24223600e-003 0. 0. 0. 0. 0.
      0. 1.24223600e-003 0. 0. 0. 2.48447200e-003 0. 1.24223600e-003 0.
      1.24223600e-003 0. 0. 0. 6.21118024e-003 0. 2.48447200e-003 0. 0.
      2.48447200e-003 0. 0. 0. 1.24223600e-003 0. 0. 1.24223600e-003 0.
      0. 0. 0. 1.24223600e-003 0. 1.24223600e-003 2.48447200e-003
      1.24223600e-003 1.24223600e-003 6.21118024e-003 1.24223600e-003
      4.96894401e-003 1.24223600e-003 0. 0. 0. 0. 1.24223600e-003 0. 0.
      1.24223600e-003 1.24223600e-003 0. 0. 0. 0. 2.48447200e-003
      2.48447200e-003 0. 0. 2.48447200e-003 0. 0. 0. 0. 0. 0.
      2.48447200e-003 1.24223600e-003 4.96894401e-003 0. 3.72670800e-003
      1.24223600e-003 2.48447200e-003 1.24223600e-003 0. 0. 0. 0. 0. 0.
      0. 0. 4.96894401e-003 3.72670800e-003 0. 0. 2.48447200e-003
      4.96894401e-003 1.24223600e-003 1.24223600e-003 0. 0.
      7.45341601e-003 0. 1.24223600e-003 0. 0. 1.24223600e-003 0. 0. 0.
      1.24223600e-003 0. 1.24223600e-003 1.24223600e-003 0. 0. 0. 0.
      1.24223600e-003 1.24223600e-003 0. 1.24223600e-003 0. 0. 0. 0. 0.
      0. 0. 0. 0. 0. 0. 0. 3.72670800e-003 0. 0. 0. 0. 1.24223600e-003
      1.24223600e-003 0. 0. 1.24223600e-003 0. 0. 0. 0. 1.24223600e-003
      1.24223600e-003 0. 3.72670800e-003 0. 0. 0. 0. 2.48447200e-003
      1.24223600e-003 0. 0. 2.48447200e-003 1.24223600e-003 0.
      1.24223600e-003 0. 0. 1.24223600e-003 0. 3.72670800e-003 0. 0. 0.
      1.24223600e-003 0. 4.96894401e-003 0. 0. 0. 2.48447200e-003 0. 0.
      1.24223600e-003 0. 1.24223600e-003 1.24223600e-003 0.
      2.48447200e-003 0. 1.24223600e-003 0. 6.21118024e-003 0. 0. 0.
      1.24223600e-003 0. 1.24223600e-003 0. 1.24223600e-003 0.
      1.24223600e-003 2.48447200e-003 1.24223600e-003 3.72670800e-003 0.
      0. 0. 2.48447200e-003 3.72670800e-003 0. 0. 0. 0. 0.
      1.24223600e-003 0. 0. 0. 0. 4.96894401e-003 2.48447200e-003 0. 0.
      0. 0. 0. 3.72670800e-003 0. 0. 0. 0. 1.24223600e-003 0. 0.
      1.24223600e-003 0. 1.24223600e-003 2.48447200e-003 1.24223600e-003
      0. 1.24223600e-003 1.24223600e-003 0. 3.72670800e-003 0.
      2.48447200e-003 0. 0. 1.24223600e-003 0. 1.24223600e-003 0.
      1.24223600e-003 0. 0. 0. 1.24223600e-003 1.24223600e-003 0. 0.
      1.24223600e-003 3.72670800e-003 0. 0. 0. 3.72670800e-003 0.
      2.48447200e-003 0. 0. 1.24223600e-003 2.48447200e-003 0. 0. 0.
      2.48447200e-003 0. 0. 3.72670800e-003 0. 1.24223600e-003 0. 0.
      1.24223600e-003 3.72670800e-003 0. 0. 0. 0. 4.96894401e-003 0.
      1.24223600e-003 1.24223600e-003 2.48447200e-003 2.48447200e-003
      1.24223600e-003 0. 0. 1.24223600e-003 0. 0. 1.24223600e-003 0.
      1.24223600e-003 0. 0. 1.24223600e-003 3.72670800e-003 0.
      1.24223600e-003 0. 0. 1.24223600e-003 0. 0. 0. 0. 1.24223600e-003
      0. 0. 0. 0. 2.48447200e-003 1.24223600e-003 0. 3.72670800e-003 0.
      2.48447200e-003 0. 1.24223600e-003 1.24223600e-003 1.24223600e-003
      0. 2.48447200e-003 0. 2.48447200e-003 1.24223600e-003 0. 0.
      2.48447200e-003 0. 0. 1.24223600e-003 7.45341601e-003
      1.24223600e-003 1.24223600e-003 0. 0. 0. 0. 0. 0. 1.24223600e-003</_>
    <_>
      0. 1.20481930e-003 0. 0. 0. 0. 1.20481930e-003 2.40963860e-003
      2.40963860e-003 1.20481930e-003 0. 0. 0. 0. 1.20481930e-003 0.
      1.20481930e-003 0. 0. 0. 0. 0. 0. 0. 0. 1.20481930e-003 0. 0. 0.
      0. 0. 0. 0. 1.20481930e-003 1.20481930e-003 0. 3.61445779e-003 0.
      0. 0. 6.02409663e-003 1.20481930e-003 0. 0. 0. 0. 0.
      1.20481930e-003 1.20481930e-003 0. 0. 0. 0. 1.20481930e-003 0. 0.
      0. 0. 0. 0. 0. 0. 0. 0. 9.63855442e-003 1.20481930e-003 0. 0.
      1.20481930e-003 4.81927721e-003 1.20481930e-003 0. 0. 0. 0.
      1.20481930e-003 1.20481930e-003 1.20481930e-003 0. 0. 0. 0. 0. 0.
      0. 0. 0. 1.20481930e-003 0. 0. 2.40963860e-003 1.20481930e-003 0.
      1.20481930e-003 6.02409663e-003 0. 2.40963860e-003 0. 0. 0. 0. 0.
      0. 0. 1.20481930e-003 1.20481930e-003 0. 3.61445779e-003 0. 0. 0.
      0. 0. 0. 3.61445779e-003 1.20481930e-003 0. 0. 0. 0.
      7.22891558e-003 0. 2.40963860e-003 2.40963860e-003 0. 0.
      1.20481930e-003 3.61445779e-003 0. 0. 9.63855442e-003
      1.20481930e-003 0. 1.20481930e-003 0. 0. 0. 0. 0. 0.
      6.02409663e-003 0. 0. 0. 0. 2.40963860e-003 0. 0. 0. 0. 0. 0.
      1.20481930e-003 0. 0. 0. 0. 0. 0. 0. 6.02409663e-003 0. 0.
      1.20481930e-003 0. 0. 0. 0. 1.20481930e-003 0. 0. 0. 0. 0. 0.
      2.40963860e-003 1.20481930e-003 0. 0. 0. 1.20481930e-003 0. 0. 0.
      0. 0. 0. 1.20481933e-002 0. 0. 0. 1.20481930e-003 0. 0. 0.
      6.02409663e-003 0. 0. 0. 1.80722903e-002 0. 0. 2.40963860e-003 0.
      0. 0. 0. 4.81927721e-003 0. 0. 0. 1.20481930e-003 0. 0. 0. 0. 0.
      0. 1.20481930e-003 0. 0. 3.61445779e-003 2.40963860e-003 0. 0. 0.
      1.20481930e-003 0. 0. 0. 0. 0. 1.20481930e-003 0. 0. 0. 0.
      2.40963860e-003 1.20481930e-003 0. 0. 0. 2.28915662e-002
      2.40963860e-003 0. 0. 0. 0. 0. 0. 0. 0. 0. 1.20481930e-003 0. 0.
      0. 0. 0. 0. 0. 1.20481930e-003 1.20481930e-003 0. 2.40963860e-003
      0. 0. 0. 0. 1.20481930e-003 0. 0. 0. 1.20481930e-003
      3.61445779e-003 0. 0. 0. 0. 0. 4.81927721e-003 0. 1.20481930e-003
      0. 0. 0. 0. 0. 0. 1.20481930e-003 1.08433738e-002 1.20481930e-003
      1.20481930e-003 0. 0. 0. 0. 0. 0. 0. 1.20481930e-003 0. 0. 0. 0.
      0. 0. 0. 0. 5.18072285e-002 3.61445779e-003 0. 1.20481930e-003
      2.40963860e-003 0. 2.40963860e-003 0. 0. 9.63855442e-003 0. 0. 0.
      0. 0. 0. 0. 0. 0. 0. 0. 0. 0. 1.20481930e-003 0. 1.20481930e-003
      0. 1.44578312e-002 0. 0. 0. 0. 0. 1.68674700e-002 0. 0. 0. 0. 0.
      0. 0. 1.20481930e-003 2.40963860e-003 0. 0. 1.20481930e-003 0. 0.
      0. 0. 0. 0. 0. 0. 1.20481930e-003 4.81927721e-003 1.20481930e-003
      4.81927721e-003 2.40963860e-003 1.20481930e-003 0. 1.20481930e-003
      0. 0. 0. 0. 0. 0. 0. 1.20481930e-003 0. 0. 0. 0. 0. 0. 0. 0. 0. 0.
      0. 0. 0. 1.20481930e-003 0. 2.40963860e-003 0. 3.61445779e-003 0.
      0. 0. 0. 0. 1.20481930e-003 0. 0. 0. 0. 0. 0. 0. 0. 0.
      1.20481930e-003 1.20481930e-003 2.40963860e-003 1.20481930e-003
      1.08433738e-002 0. 2.40963860e-003 1.20481930e-003 0. 0. 0. 0. 0.
      2.40963860e-003 1.20481930e-003 0. 0. 1.20481930e-003 0. 0.
      1.20481930e-003 1.20481933e-002 0. 0. 1.20481930e-003
      1.20481930e-003 0. 0. 0. 3.61445779e-003 3.61445779e-003 0. 0. 0.
      1.20481930e-003 0. 0. 0. 0. 0. 3.61445779e-003 0. 0.
      8.43373500e-003 3.61445779e-003 0. 0. 0. 0. 0. 4.81927721e-003 0.
      0. 2.40963860e-003 0. 0. 1.20481930e-003 1.20481930e-003 0.
      6.02409663e-003 0. 4.81927721e-003 0. 3.13253030e-002
      4.81927721e-003 0. 0. 0. 0. 1.20481930e-003 0. 0. 0. 0. 0. 0. 0.
      0. 0. 0. 0. 0. 0. 0. 1.20481930e-003 0. 0. 0. 1.20481930e-003 0.
      0. 0. 0. 0. 0. 0. 0. 0. 0. 0. 1.20481930e-003 0. 0. 0. 0. 0.
      2.40963860e-003 0. 9.63855442e-003 4.81927721e-003 0. 0. 0.
      1.20481930e-003 0. 0. 0. 0. 0. 2.40963860e-003 1.20481930e-003 0.
      2.40963860e-003 0. 1.20481930e-003 7.22891558e-003 0.
      1.20481930e-003 0. 0. 0. 1.20481930e-003 0. 1.20481930e-003 0. 0.
      0. 0. 0. 0. 2.40963860e-003 0. 0. 0. 0. 0. 0. 3.61445779e-003 0.
      0. 0. 1.20481930e-003 0. 0. 0. 0. 0. 1.92771088e-002
      6.02409663e-003 0. 0. 0. 0. 0. 0. 0. 0. 0. 0. 0. 0. 0. 0.
      4.81927721e-003 0. 0. 0. 1.20481930e-003 1.20481930e-003
      3.61445779e-003 0. 0. 0. 2.40963860e-003 1.20481930e-003
      3.61445779e-003 0. 9.63855442e-003 0. 2.40963860e-003
      1.20481930e-003 2.40963860e-003 1.20481930e-003 0. 0.
      1.20481930e-003 0. 0. 0. 1.20481930e-003 0. 1.68674700e-002
      3.61445779e-003 0. 0. 0. 1.20481930e-003 0. 0. 0. 0. 0.
      1.20481930e-003 0. 0. 0. 0. 0. 0. 0. 0. 0. 0. 0. 0. 0. 0.
      4.81927721e-003 0. 0. 2.40963860e-003 0. 1.68674700e-002 0. 0. 0.
      1.20481930e-003 7.22891558e-003 1.20481930e-003 0. 3.61445779e-003
      0. 0. 2.40963860e-003 0. 0. 0. 0. 1.20481930e-003 0. 0. 0. 0. 0.
      0. 1.20481930e-003 1.20481930e-003 1.20481930e-003 4.81927721e-003
      0. 0. 0. 0. 0. 2.40963860e-003 1.20481930e-003 0. 0. 0. 0. 0. 0.
      0. 9.63855442e-003 4.81927721e-003 0. 0. 0. 1.20481930e-003 0. 0.
      1.20481930e-003 2.40963860e-003 2.40963860e-003 0. 0. 0.
      1.20481930e-003 2.40963860e-003 0. 0. 0. 0. 0. 0. 0. 0. 0.
      1.20481930e-003 1.20481930e-003 0. 3.61445779e-003 0. 0.
      1.20481930e-003 0. 0. 0. 0. 4.81927721e-003 0. 0. 0. 0.
      1.20481930e-003 0. 0. 0. 0. 3.61445779e-003 0. 0. 2.40963860e-003
      0. 0. 0. 0. 1.20481930e-003 0. 0. 2.40963860e-003 0. 0.
      1.20481930e-003 2.40963860e-003 0. 0. 0. 0. 0. 0. 0. 0.
      1.20481930e-003 0. 0. 0. 0. 0. 3.61445779e-003 0. 0. 0.
      1.20481930e-003 0. 0. 1.20481930e-003 1.20481930e-003 0.
      1.20481930e-003 0. 2.40963860e-003 0. 2.40963860e-003
      3.61445779e-003 0. 0. 2.40963860e-003 0. 2.40963860e-003 0. 0. 0.
      4.57831323e-002 0. 0. 0. 0. 0. 0. 0. 0. 0. 1.20481930e-003
      4.81927721e-003 4.81927721e-003 0. 1.20481930e-003 0. 0. 0.
      3.61445779e-003 0. 0. 0. 0. 0. 0. 0. 0. 1.20481930e-003 0.
      1.20481930e-003 0. 0. 0. 0. 0. 0. 0. 0. 0. 6.02409663e-003 0.
      1.20481930e-003 0. 0. 0. 0. 3.61445779e-003 0. 0. 0. 0. 0.
      2.40963860e-003 0. 0. 2.40963860e-003 0. 0. 4.81927721e-003 0.
      1.20481930e-003 3.61445779e-003 3.61445779e-003 0. 1.20481930e-003
      2.40963860e-003 0. 0. 0. 0. 0. 4.81927721e-003 0. 0.
      1.20481930e-003 0. 0. 0. 0. 0. 0. 3.61445779e-003 1.20481930e-003
      1.20481930e-003 0. 0. 0. 0. 0. 0. 0. 1.20481930e-003
      1.20481930e-003 2.40963860e-003 0. 0. 1.20481930e-003 0. 0. 0. 0.
      0. 0. 0. 0. 2.40963860e-003 0. 0. 7.22891558e-003 0. 0. 0. 0. 0.
      0. 0. 0. 1.20481930e-003 1.20481930e-003 0. 1.20481930e-003 0. 0.
      0. 2.40963860e-003 0. 0. 1.20481930e-003 0. 0. 0. 0. 0. 0. 0. 0.
      0. 1.20481930e-003 0. 0. 1.20481930e-003 0. 1.20481930e-003
      1.20481930e-003 0. 0. 0. 0. 0. 0. 1.20481930e-003 2.40963860e-003
      1.20481933e-002 2.40963860e-003 0. 1.20481930e-003 0. 0. 0. 0. 0.
      0. 2.40963860e-003 0. 0. 0. 0. 0. 0. 0. 0. 1.20481930e-003
      9.63855442e-003 0. 0. 0. 0. 0. 0. 3.25301215e-002 0. 0.
      9.63855442e-003 6.02409663e-003 3.61445779e-003 0. 0.
      1.20481930e-003 0. 0. 0. 0. 0. 1.20481930e-003 2.40963860e-003 0.
      0. 0. 0. 0. 0. 0. 0. 1.20481930e-003 0. 0. 0. 2.40963860e-003 0.
      4.81927721e-003 0. 0. 1.20481930e-003 0. 0.</_>
    <_>
      2.08333344e-003 2.08333344e-003 0. 6.25000056e-003 0. 0. 0. 0.
      4.16666688e-003 1.87500007e-002 0. 2.08333344e-003 0. 0. 0. 0. 0.
      0. 2.08333344e-003 0. 0. 4.16666688e-003 4.16666688e-003 0.
      2.08333344e-003 0. 0. 6.25000056e-003 0. 0. 0. 2.08333344e-003 0.
      0. 4.16666688e-003 0. 0. 0. 2.08333344e-003 2.08333344e-003
      2.08333344e-003 4.16666688e-003 2.08333344e-003 0. 8.33333377e-003
      0. 0. 0. 2.08333344e-003 0. 0. 2.08333344e-003 2.08333340e-002 0.
      2.08333344e-003 0. 0. 0. 0. 0. 0. 0. 0. 0. 0. 0. 0. 0. 0. 0. 0. 0.
      2.08333344e-003 0. 6.25000056e-003 1.66666675e-002 0. 0. 0. 0. 0.
      0. 2.08333344e-003 0. 0. 2.08333344e-003 0. 0. 0. 0.
      2.08333344e-003 8.33333377e-003 0. 6.25000056e-003 0. 0. 0. 0. 0.
      0. 0. 0. 0. 0. 2.08333344e-003 0. 0. 0. 0. 0. 0. 0. 0. 0. 0. 0. 0.
      0. 0. 0. 0. 1.25000011e-002 0. 0. 0. 0. 0. 1.45833343e-002 0. 0.
      0. 0. 2.08333344e-003 0. 0. 0. 8.33333377e-003 0. 0.
      4.16666688e-003 2.08333344e-003 6.25000056e-003 0. 4.16666688e-003
      0. 0. 0. 0. 0. 0. 4.16666688e-003 0. 0. 0. 0. 0. 2.08333344e-003
      4.16666688e-003 0. 0. 0. 0. 0. 2.08333344e-003 0. 0. 0. 0.
      4.16666688e-003 6.25000056e-003 2.08333344e-003 2.08333344e-003 0.
      0. 0. 0. 0. 0. 0. 0. 0. 0. 2.08333344e-003 0. 2.08333344e-003 0.
      0. 0. 0. 0. 0. 0. 0. 0. 0. 2.08333344e-003 4.16666688e-003 0. 0.
      0. 0. 0. 0. 2.08333344e-003 0. 0. 0. 0. 0. 0. 0. 0. 0.
      2.08333344e-003 0. 0. 2.08333344e-003 0. 0. 0. 0. 0. 0. 0.
      2.08333344e-003 0. 0. 2.08333344e-003 0. 0. 0. 0. 2.08333344e-003
      0. 0. 0. 0. 0. 2.08333344e-003 0. 0. 0. 0. 0. 0. 0.
      6.25000056e-003 0. 2.08333344e-003 0. 0. 0. 0. 0. 0. 0. 0.
      2.08333344e-003 0. 2.08333344e-003 0. 0. 0. 0. 0. 2.08333344e-003
      0. 0. 2.08333344e-003 1.45833343e-002 0. 0. 0. 0. 0. 0. 0. 0. 0.
      2.08333344e-003 6.25000056e-003 0. 0. 0. 2.08333344e-003 0. 0. 0.
      2.08333344e-003 0. 4.16666688e-003 2.08333344e-003 0. 0.
      6.25000056e-003 0. 0. 0. 1.66666675e-002 0. 0. 4.16666688e-003 0.
      0. 0. 0. 0. 0. 4.16666688e-003 0. 0. 0. 0. 4.16666688e-003 0. 0.
      0. 4.16666688e-003 0. 2.08333344e-003 0. 4.16666688e-003
      2.08333344e-003 0. 0. 0. 0. 0. 0. 0. 0. 0. 0. 0. 0. 0. 0.
      2.08333344e-003 0. 0. 0. 0. 0. 2.08333344e-003 0. 2.08333344e-003
      0. 0. 0. 0. 0. 6.25000056e-003 2.08333344e-003 0. 0. 0. 0. 0. 0.
      0. 0. 0. 0. 2.08333344e-003 6.25000056e-003 0. 0. 0. 0. 0. 0. 0.
      0. 0. 2.08333344e-003 0. 4.16666688e-003 2.08333344e-003
      2.08333344e-003 0. 0. 0. 0. 0. 2.08333344e-003 0. 0. 0. 0. 0. 0.
      0. 0. 4.16666688e-003 0. 0. 0. 0. 0. 0. 0. 0. 0. 0.
      4.16666688e-003 0. 0. 0. 2.08333344e-003 0. 8.33333377e-003 0.
      4.16666688e-003 1.04166670e-002 0. 0. 0. 0. 0. 0. 0. 0.
      4.16666688e-003 0. 0. 0. 0. 0. 0. 6.25000056e-003 0. 0. 0. 0. 0.
      4.16666688e-003 0. 0. 0. 2.08333344e-003 0. 0. 0. 0. 0. 0. 0. 0.
      0. 0. 0. 0. 0. 0. 4.16666688e-003 0. 1.45833343e-002 0.
      2.08333344e-003 0. 2.08333344e-003 0. 0. 0. 0. 2.08333344e-003 0.
      0. 0. 1.04166670e-002 0. 0. 0. 2.08333344e-003 0. 0. 0. 0. 0.
      4.16666688e-003 0. 0. 0. 0. 4.16666688e-003 0. 0. 8.33333377e-003
      0. 0. 0. 0. 0. 0. 2.08333344e-003 0. 0. 2.08333344e-003
      2.08333344e-003 0. 0. 0. 0. 2.08333344e-003 0. 0. 0. 0. 0. 0.
      2.08333344e-003 0. 0. 0. 0. 0. 0. 0. 2.08333344e-003 0. 0. 0.
      2.08333344e-003 0. 0. 0. 4.16666688e-003 0. 0. 6.25000056e-003 0.
      0. 0. 0. 0. 0. 0. 0. 6.25000056e-003 2.08333344e-003
      2.50000022e-002 2.08333344e-003 0. 0. 0. 0. 0. 0. 0. 0. 0. 0. 0.
      0. 0. 4.16666688e-003 0. 0. 2.08333344e-003 0. 0. 0. 0. 0. 0.
      2.08333344e-003 8.33333377e-003 0. 2.08333344e-003 0. 0. 0. 0. 0.
      0. 2.08333344e-003 0. 0. 0. 0. 0. 0. 0. 4.16666688e-003 0. 0. 0.
      0. 0. 4.16666688e-003 0. 0. 0. 0. 2.08333344e-003 4.16666688e-003
      0. 0. 6.25000056e-003 6.25000056e-003 0. 0. 8.33333377e-003
      4.16666688e-003 0. 0. 0. 0. 0. 2.08333344e-003 0. 0. 0. 0. 0.
      2.08333344e-003 0. 0. 0. 0. 8.33333377e-003 0. 0. 0. 0.
      4.16666688e-003 0. 4.16666688e-003 0. 0. 2.08333344e-003 0. 0. 0.
      0. 0. 2.08333344e-003 0. 0. 2.08333344e-003 4.16666688e-003 0. 0.
      0. 0. 0. 0. 0. 0. 0. 0. 0. 2.08333344e-003 0. 6.25000056e-003 0.
      0. 2.08333344e-003 2.08333344e-003 0. 0. 0. 0. 0. 0. 0. 0. 0. 0.
      0. 2.08333344e-003 2.08333344e-003 0. 0. 0. 2.08333344e-003 0.
      4.16666688e-003 0. 0. 0. 2.08333344e-003 2.08333344e-003 0. 0.
      2.08333344e-003 0. 0. 0. 2.08333344e-003 0. 0. 2.08333344e-003
      4.16666688e-003 2.08333344e-003 0. 2.08333344e-003 0. 0.
      2.08333344e-003 0. 0. 2.08333344e-003 0. 0. 0. 4.16666688e-003 0.
      0. 0. 0. 0. 0. 0. 2.08333344e-003 0. 0. 0. 0. 0. 0. 0. 0.
      4.16666688e-003 2.08333344e-003 0. 2.08333344e-003 0.
      8.33333377e-003 0. 0. 2.50000022e-002 2.08333344e-003 0.
      4.16666688e-003 0. 0. 0. 0. 8.33333377e-003 0. 0. 0. 0.
      2.08333344e-003 2.08333344e-003 0. 0. 2.08333344e-003
      4.16666688e-003 2.08333344e-003 0. 0. 0. 0. 6.25000056e-003
      6.25000056e-003 0. 1.25000011e-002 0. 4.16666688e-003
      2.08333344e-003 0. 0. 0. 0. 0. 2.08333344e-003 0. 2.08333344e-003
      4.16666688e-003 0. 0. 0. 0. 0. 0. 0. 0. 0. 0. 0. 0. 0. 0. 0.
      2.08333344e-003 0. 8.33333377e-003 2.08333344e-003 4.16666688e-003
      0. 0. 0. 0. 0. 0. 0. 0. 0. 0. 0. 0. 0. 0. 0. 0. 0. 0.
      2.08333344e-003 0. 0. 0. 0. 0. 6.25000056e-003 2.08333344e-003 0.
      0. 2.08333344e-003 0. 0. 0. 0. 0. 0. 0. 0. 0. 4.16666688e-003
      2.08333344e-003 0. 0. 0. 0. 0. 0. 2.08333344e-003 0.
      2.08333344e-003 0. 0. 0. 0. 2.08333344e-003 2.08333344e-003 0.
      4.16666688e-003 2.08333344e-003 2.08333344e-003 6.25000056e-003 0.
      0. 0. 0. 0. 0. 0. 0. 0. 0. 0. 0. 0. 2.08333344e-003 0.
      2.08333344e-003 0. 0. 4.16666688e-003 0. 0. 0. 0. 0. 0. 0. 0. 0.
      0. 0. 4.16666688e-003 0. 0. 0. 0. 0. 0. 0. 0. 6.25000056e-003 0.
      0. 0. 2.08333344e-003 0. 4.16666688e-003 0. 2.08333344e-003
      2.08333344e-003 0. 0. 4.16666688e-003 0. 0. 2.08333344e-003 0. 0.
      2.08333344e-003 0. 0. 2.08333344e-003 6.25000056e-003 0. 0. 0.
      4.16666688e-003 0. 4.16666688e-003 0. 0. 0. 4.16666688e-003
      2.08333344e-003 0. 0. 0. 0. 0. 2.08333344e-003 0. 1.04166670e-002
      0. 4.16666688e-003 0. 0. 0. 4.16666688e-003 0. 2.08333344e-003
      4.16666688e-003 0. 0. 0. 0. 0. 0. 0. 6.25000056e-003 0. 0.
      2.08333344e-003 0. 4.16666688e-003 0. 4.16666688e-003
      2.08333344e-003 0. 0. 2.08333344e-003 2.08333344e-003 0. 0. 0. 0.
      0. 2.08333344e-003 0. 0. 0. 0. 0. 0. 2.08333344e-003 0. 0. 0. 0.
      0. 0. 0. 0. 0. 0. 0. 0. 0. 4.16666688e-003 0. 0. 0. 0. 0. 0.
      4.16666688e-003 0. 0. 0. 0. 6.25000056e-003</_>
    <_>
      0. 2.11416488e-003 2.11416488e-003 3.17124743e-003 0. 0. 0. 0.
      1.05708244e-003 1.05708244e-003 0. 1.05708244e-003 0.
      3.17124743e-003 0. 0. 0. 0. 0. 0. 0. 2.11416488e-003 0. 0.
      1.05708244e-003 1.05708244e-003 0. 1.05708244e-003 0. 0. 0.
      3.17124743e-003 4.22832975e-003 0. 5.28541207e-003 1.05708244e-003
      0. 0. 0. 0. 6.34249486e-003 0. 5.28541207e-003 0. 0. 0.
      2.11416488e-003 0. 2.11416488e-003 0. 0. 0. 0. 0. 0. 0. 0.
      1.05708244e-003 0. 8.45665950e-003 4.22832975e-003 0. 0. 0. 0.
      1.05708244e-003 2.11416488e-003 2.11416488e-003 0. 0. 0.
      1.05708244e-003 0. 0. 0. 0. 0. 0. 0. 2.11416488e-003 0. 0.
      3.17124743e-003 0. 0. 0. 5.28541207e-003 0. 0. 0. 0. 0. 0. 0. 0.
      0. 0. 0. 2.11416488e-003 0. 0. 0. 6.34249486e-003 0. 0. 0. 0. 0.
      0. 0. 0. 0. 0. 0. 0. 0. 0. 6.34249486e-003 0. 1.05708244e-003 0.
      1.05708244e-003 0. 0. 1.05708244e-003 0. 2.11416488e-003 0. 0. 0.
      0. 0. 0. 0. 0. 3.17124743e-003 4.65116277e-002 0. 0.
      1.05708244e-003 0. 0. 0. 3.17124743e-003 0. 2.11416488e-003 0. 0.
      0. 0. 0. 2.11416488e-003 0. 0. 0. 8.45665950e-003 1.05708244e-003
      2.11416488e-003 1.37420716e-002 0. 0. 0. 2.11416488e-003
      4.22832975e-003 0. 0. 0. 0. 0. 0. 0. 0. 0. 1.05708244e-003 0. 0.
      1.05708244e-003 0. 0. 0. 0. 0. 0. 3.17124743e-003 0. 0. 0. 0.
      2.11416488e-003 0. 0. 0. 3.17124743e-003 1.05708244e-003 0. 0. 0.
      0. 0. 0. 0. 0. 0. 0. 0. 1.05708244e-003 0. 0. 0. 0. 0. 0. 0. 0. 0.
      0. 0. 3.17124743e-003 0. 0. 0. 0. 0. 0. 0. 0. 0. 0.
      5.28541207e-003 0. 6.34249486e-003 0. 0. 0. 2.11416488e-003
      1.05708244e-003 0. 0. 0. 0. 1.05708244e-003 0. 0. 0. 0. 0.
      1.05708244e-003 1.05708241e-002 0. 0. 0. 3.17124743e-003 0. 0. 0.
      0. 0. 0. 0. 0. 2.11416488e-003 0. 0. 1.05708244e-003 0.
      2.53699794e-002 2.11416488e-003 0. 1.05708244e-003 0. 0. 0. 0. 0.
      0. 0. 0. 0. 0. 0. 2.11416488e-003 0. 0. 0. 4.22832975e-003
      8.45665950e-003 0. 0. 0. 7.39957718e-003 0. 0. 0. 0. 0. 0. 0. 0.
      0. 0. 0. 0. 0. 0. 1.05708244e-003 0. 0. 1.05708244e-003 0. 0. 0.
      3.17124743e-003 0. 0. 5.28541207e-003 0. 1.05708244e-003 0. 0. 0.
      0. 0. 0. 1.05708244e-003 0. 0. 0. 0. 0. 0. 0. 1.05708244e-003
      1.05708244e-003 0. 0. 0. 0. 0. 0. 1.05708244e-003 1.05708244e-003
      0. 0. 0. 0. 0. 2.11416488e-003 0. 0. 0. 0. 0. 2.21987311e-002
      1.05708244e-003 0. 0. 0. 0. 0. 0. 0. 0. 0. 0. 0. 0. 0. 0.
      1.05708244e-003 0. 0. 0. 3.17124743e-003 0. 0. 0. 2.11416488e-003
      5.49682863e-002 1.05708244e-003 0. 0. 1.47991544e-002 0. 0. 0. 0.
      0. 0. 0. 0. 0. 0. 0. 0. 1.05708244e-003 0. 0. 0. 0.
      4.22832975e-003 0. 0. 0. 0. 0. 3.17124743e-003 0. 0.
      1.05708244e-003 0. 0. 2.11416488e-003 2.11416488e-003 0. 0. 0. 0.
      0. 0. 0. 1.05708244e-003 3.17124743e-003 0. 0. 0. 0. 0. 0. 0.
      2.11416488e-003 0. 0. 0. 0. 0. 0. 0. 0. 4.22832975e-003
      6.34249486e-003 0. 0. 0. 0. 0. 0. 0. 1.05708244e-003 0. 0. 0. 0.
      0. 0. 0. 0. 0. 0. 1.05708244e-003 0. 0. 0. 0. 0. 0. 0. 0. 0. 0.
      4.12262157e-002 2.11416488e-003 0. 0. 0. 0. 1.05708244e-003 0. 0.
      0. 2.11416488e-003 0. 0. 0. 0. 3.17124743e-003 0. 0.
      1.05708244e-003 1.05708244e-003 0. 0. 0. 0. 0. 6.34249486e-003
      1.05708244e-003 0. 0. 5.28541207e-003 0. 0. 0. 0. 1.05708244e-003
      0. 1.05708244e-003 1.05708244e-003 0. 0. 0. 0. 0. 0. 0. 0. 0. 0.
      1.37420716e-002 0. 0. 0. 0. 2.21987311e-002 0. 0. 1.05708244e-003
      0. 0. 0. 5.28541207e-003 0. 0. 0. 0. 0. 0. 7.39957718e-003 0. 0.
      4.22832975e-003 0. 0. 0. 0. 1.05708244e-003 0. 0. 0. 0. 0. 0. 0.
      0. 2.11416488e-003 1.05708244e-003 1.05708244e-003 0.
      2.11416488e-003 0. 0. 9.51374229e-003 0. 1.16279069e-002 0. 0. 0.
      1.05708244e-003 0. 0. 0. 0. 5.28541207e-003 0. 0. 0. 0. 0. 0. 0.
      0. 1.05708244e-003 0. 0. 0. 0. 0. 0. 0. 0. 0. 0. 1.05708244e-003
      0. 1.05708244e-003 1.05708244e-003 0. 2.11416488e-003 0.
      2.85412259e-002 0. 2.11416488e-003 1.05708244e-003 3.17124743e-003
      4.22832975e-003 0. 0. 0. 0. 0. 1.26849897e-002 0. 0. 0.
      8.45665950e-003 0. 0. 1.05708244e-003 0. 0. 0. 2.43128967e-002
      4.22832975e-003 0. 0. 1.05708244e-003 0. 0. 2.11416488e-003 0.
      1.05708244e-003 1.05708244e-003 0. 0. 0. 4.22832975e-003 0.
      2.11416488e-003 0. 2.11416488e-003 0. 0. 2.11416488e-003
      1.05708244e-003 0. 0. 0. 0. 1.05708244e-003 2.11416488e-003 0. 0.
      0. 0. 0. 0. 0. 0. 0. 6.34249486e-003 4.22832975e-003 0. 0. 0. 0.
      0. 0. 0. 0. 0. 0. 0. 1.05708244e-003 0. 8.45665950e-003 0.
      1.05708244e-003 0. 0. 0. 1.05708244e-003 0. 2.11416488e-003 0. 0.
      0. 0. 0. 0. 0. 0. 0. 1.05708244e-003 0. 1.05708244e-003 0. 0. 0.
      0. 0. 0. 0. 0. 1.05708244e-003 0. 0. 0. 2.11416488e-003 0. 0. 0.
      0. 0. 2.11416488e-003 0. 0. 0. 0. 0. 0. 0. 0. 0. 0.
      1.05708244e-003 0. 0. 0. 0. 1.26849897e-002 0. 1.05708244e-003 0.
      0. 0. 0. 0. 0. 2.11416488e-003 1.05708244e-003 0. 0. 0. 0.
      1.05708244e-003 0. 1.05708244e-003 0. 0. 0. 0. 0. 0. 0.
      1.05708244e-003 0. 3.17124724e-002 5.28541207e-003 0. 0. 0.
      1.05708244e-003 0. 0. 0. 0. 3.17124743e-003 0. 0. 0. 0. 0.
      1.05708244e-003 0. 0. 0. 0. 0. 0. 0. 0. 0. 3.17124743e-003
      1.05708244e-003 0. 0. 0. 1.05708244e-003 0. 0. 0. 1.16279069e-002
      0. 0. 0. 0. 1.05708244e-003 0. 0. 0. 0. 0. 0. 0. 0.
      1.05708244e-003 0. 0. 0. 1.58562362e-002 0. 0. 0. 0. 0.
      3.17124743e-003 0. 1.05708244e-003 2.11416488e-003 0. 0. 0. 0. 0.
      0. 0. 1.05708244e-003 0. 0. 0. 1.05708244e-003 0. 0. 0. 0. 0. 0.
      1.05708244e-003 4.22832975e-003 0. 1.05708244e-003 1.05708244e-003
      0. 0. 1.05708244e-003 0. 0. 0. 0. 0. 0. 0. 0. 0. 3.17124743e-003
      1.05708241e-002 0. 0. 0. 0. 0. 1.05708244e-003 0. 0. 0. 0. 0. 0.
      0. 0. 0. 2.11416488e-003 0. 0. 0. 0. 0. 0. 1.05708244e-003 0.
      2.11416488e-003 0. 0. 3.17124743e-003 0. 0. 0. 1.05708244e-003 0.
      0. 0. 0. 0. 0. 0. 0. 1.37420716e-002 0. 0. 0. 0. 1.05708244e-003
      1.05708244e-003 3.17124743e-003 0. 1.05708244e-003 0.
      1.05708244e-003 0. 0. 0. 0. 0. 6.34249486e-003 2.11416488e-003
      1.05708244e-003 0. 1.05708244e-003 0. 0. 0. 0. 1.05708244e-003
      1.05708244e-003 5.28541207e-003 0. 0. 0. 0. 3.17124743e-003
      2.11416488e-003 1.05708244e-003 0. 0. 2.11416488e-003 0.
      1.05708244e-003 6.34249486e-003 2.11416488e-003 0. 0.
      4.22832975e-003 0. 0. 0. 0. 0. 0. 2.11416488e-003 0. 0.
      1.05708244e-003 0. 0. 9.51374229e-003 0. 0. 0. 0. 0. 0. 0. 0. 0.
      0. 0. 0. 0. 0. 2.74841432e-002 0. 0. 0. 0. 0. 0. 0. 0.
      1.05708244e-003 0. 0. 0. 0. 0. 0. 0. 0. 0. 7.39957718e-003 0.
      1.05708244e-003 1.05708244e-003 0. 0. 0. 0. 0. 0. 2.11416488e-003
      0. 0.</_>
    <_>
      0. 0. 0. 8.84955749e-003 1.76991150e-003 0. 0. 0. 0.
      1.76991150e-003 0. 1.76991150e-003 0. 1.76991150e-003 0. 0. 0. 0.
      0. 0. 0. 0. 0. 0. 1.76991150e-003 0. 0. 0. 0. 0. 0. 0. 0. 0.
      1.41592920e-002 0. 0. 0. 0. 5.30973449e-003 3.53982300e-003 0.
      1.06194690e-002 0. 0. 0. 0. 0. 0. 3.53982300e-003 1.76991150e-003
      5.30973449e-003 0. 0. 1.76991150e-003 0. 0. 0. 0. 0.
      3.53982300e-003 0. 5.30973449e-003 1.76991150e-003 0. 0.
      5.30973449e-003 3.53982300e-003 0. 0. 0. 1.76991150e-003 0. 0. 0.
      0. 0. 1.76991150e-003 0. 1.76991150e-003 0. 0. 1.76991150e-003
      5.30973449e-003 0. 0. 3.53982300e-003 1.76991150e-003 0. 0. 0.
      1.76991150e-003 0. 0. 0. 1.76991150e-003 0. 0. 0. 0.
      1.76991150e-003 0. 0. 0. 0. 1.76991150e-003 0. 0. 0. 0. 0.
      1.76991150e-003 0. 0. 0. 0. 0. 0. 0. 0. 0. 0. 0. 0. 0. 0. 0. 0. 0.
      1.76991150e-003 0. 0. 5.30973449e-003 0. 0. 5.30973449e-003
      3.53982300e-003 0. 1.76991150e-003 0. 0. 0. 1.76991150e-003 0.
      1.76991150e-003 0. 0. 1.76991150e-003 0. 1.76991150e-003 0.
      1.76991150e-003 0. 0. 1.76991150e-003 1.76991150e-003 0.
      1.76991150e-003 7.07964599e-003 0. 0. 0. 1.23893805e-002
      3.53982300e-003 0. 1.76991150e-003 0. 1.76991150e-003 0.
      1.76991150e-003 3.53982300e-003 0. 0. 0. 0. 0. 0. 5.30973449e-003
      0. 1.76991150e-003 0. 0. 5.30973449e-003 3.53982300e-003 0. 0. 0.
      0. 1.76991150e-003 0. 1.76991150e-003 1.76991150e-003
      8.84955749e-003 0. 0. 0. 3.53982300e-003 0. 0. 0. 0. 0.
      1.76991150e-002 0. 0. 0. 0. 0. 1.76991150e-003 0. 3.53982300e-003
      0. 1.76991150e-003 0. 0. 0. 0. 0. 1.76991150e-003 5.30973449e-003
      1.76991150e-003 0. 0. 0. 0. 0. 1.76991150e-003 0. 1.76991150e-003
      0. 0. 0. 3.53982300e-003 0. 0. 0. 0. 0. 0. 1.76991150e-003 0. 0.
      0. 0. 0. 0. 1.76991150e-003 1.76991150e-003 1.76991150e-003 0. 0.
      0. 0. 0. 0. 0. 0. 0. 0. 0. 0. 0. 0. 0. 7.07964599e-003 0. 0. 0.
      1.76991150e-003 5.30973449e-003 0. 0. 0. 0. 0. 0. 0. 0.
      5.30973449e-003 0. 3.53982300e-003 0. 1.76991150e-003 0. 0.
      1.76991150e-003 1.76991150e-003 0. 3.53982300e-003 0. 0. 0. 0. 0.
      0. 0. 0. 0. 0. 0. 0. 0. 0. 0. 1.76991150e-003 0. 0. 0. 0. 0. 0.
      3.53982300e-003 1.76991150e-003 0. 1.76991150e-003 0. 0.
      1.76991150e-003 0. 7.07964599e-003 0. 7.07964599e-003 0.
      3.53982300e-003 3.53982300e-003 1.76991150e-003 0. 3.53982300e-003
      0. 1.76991150e-003 1.76991150e-003 0. 0. 0. 0. 0. 0. 0. 0. 0.
      1.76991150e-003 0. 0. 0. 1.76991150e-003 0. 0. 1.76991150e-003
      1.76991150e-003 3.53982300e-003 0. 0. 1.76991150e-003 0. 0. 0. 0.
      0. 0. 0. 0. 0. 0. 1.76991150e-003 0. 0. 0. 0. 3.53982300e-003 0.
      0. 0. 0. 0. 1.06194690e-002 0. 0. 1.76991150e-003 1.76991150e-003
      0. 0. 0. 0. 0. 3.53982300e-003 0. 0. 0. 1.76991150e-003 0. 0. 0.
      0. 3.53982300e-003 0. 0. 0. 0. 0. 0. 0. 0. 0. 5.30973449e-003 0.
      0. 5.30973449e-003 0. 0. 1.76991150e-003 0. 0. 0. 0.
      1.76991150e-003 0. 0. 1.76991150e-003 0. 0. 0. 1.76991150e-003 0.
      0. 0. 0. 0. 1.76991150e-003 0. 0. 3.53982300e-003 3.53982300e-003
      3.53982300e-003 0. 0. 3.53982300e-003 5.30973449e-003
      1.76991150e-003 0. 0. 0. 1.76991150e-003 0. 0. 0. 0. 0. 0. 0. 0.
      1.76991150e-003 0. 0. 1.76991150e-003 3.53982300e-003 0.
      5.30973449e-003 5.30973449e-003 0. 0. 0. 0. 0. 0. 1.76991150e-003
      0. 5.30973449e-003 1.76991150e-003 0. 3.53982300e-003 0. 0.
      1.76991150e-003 0. 0. 0. 0. 0. 0. 0. 1.41592920e-002
      1.23893805e-002 1.76991150e-003 0. 0. 0. 0. 0. 0. 0. 0. 0. 0. 0.
      5.30973449e-003 0. 0. 0. 7.07964599e-003 7.07964599e-003
      1.76991150e-003 0. 1.76991150e-003 1.76991150e-003 0. 0. 0. 0. 0.
      0. 1.76991150e-003 0. 0. 0. 0. 0. 0. 0. 0. 1.76991150e-003 0. 0.
      0. 0. 0. 0. 5.30973449e-003 1.76991150e-003 0. 0. 0.
      1.76991150e-003 0. 0. 3.53982300e-003 3.53982300e-003
      1.76991150e-003 1.76991150e-003 0. 5.30973449e-003 0. 0. 0. 0. 0.
      0. 1.76991150e-003 1.94690265e-002 3.53982300e-003 0. 0. 0. 0.
      5.30973449e-003 1.76991150e-003 0. 0. 1.76991150e-003 0. 0.
      1.76991150e-003 0. 1.76991150e-003 1.76991150e-003 0. 0. 0. 0. 0.
      0. 0. 5.30973449e-003 0. 0. 0. 0. 0. 0. 0. 0. 0. 0.
      3.53982300e-003 0. 0. 0. 0. 0. 0. 1.76991150e-003 0. 0. 0. 0.
      3.53982300e-003 1.76991150e-003 0. 0. 8.84955749e-003 0.
      1.06194690e-002 8.84955749e-003 0. 8.84955749e-003 0. 0. 0. 0.
      5.30973449e-003 1.76991150e-003 0. 0. 0. 0. 0. 5.30973449e-003 0.
      0. 0. 3.53982300e-003 5.30973449e-003 1.76991150e-003 0. 0. 0. 0.
      0. 3.53982300e-003 0. 0. 3.53982300e-003 0. 0. 0. 0. 0. 0. 0.
      1.76991150e-003 0. 0. 0. 0. 1.76991150e-003 0. 5.30973449e-003 0.
      1.76991150e-003 0. 0. 0. 0. 0. 0. 1.06194690e-002 0. 0. 0. 0. 0.
      0. 0. 0. 0. 0. 0. 0. 0. 0. 0. 0. 0. 5.30973449e-003 0. 0. 0. 0.
      1.76991150e-003 0. 0. 0. 1.76991150e-003 1.76991150e-003 0. 0. 0.
      0. 0. 0. 3.53982300e-003 0. 1.76991150e-003 0. 1.06194690e-002 0.
      0. 0. 0. 1.23893805e-002 0. 0. 0. 1.76991150e-003 0. 0. 0.
      1.76991150e-003 0. 0. 0. 0. 0. 3.53982300e-003 0. 0. 0.
      1.76991150e-003 1.76991150e-003 0. 0. 0. 0. 0. 1.76991150e-002
      5.30973449e-003 0. 0. 0. 0. 3.53982300e-003 0. 0. 3.53982300e-003
      0. 3.53982300e-003 0. 0. 0. 1.76991150e-003 0. 3.53982300e-003 0.
      0. 0. 0. 0. 1.76991150e-003 3.53982300e-003 8.84955749e-003 0. 0.
      0. 0. 0. 0. 3.53982300e-003 1.76991150e-003 0. 0. 0. 0. 0. 0. 0.
      0. 0. 0. 0. 0. 0. 0. 0. 0. 0. 1.76991150e-003 0. 0.
      1.76991150e-003 0. 0. 0. 1.76991150e-003 3.53982300e-003 0. 0. 0.
      1.76991150e-003 0. 0. 0. 0. 3.53982300e-003 0. 1.76991150e-003 0.
      1.06194690e-002 0. 0. 0. 1.76991150e-003 0. 3.53982300e-003 0. 0.
      7.07964599e-003 0. 0. 0. 5.30973449e-003 0. 0. 1.76991150e-003 0.
      0. 0. 0. 1.76991150e-003 1.76991150e-003 0. 0. 0. 0. 0.
      1.76991150e-003 0. 0. 1.76991150e-003 0. 0. 0. 0. 0. 0. 0. 0. 0.
      0. 0. 0. 1.23893805e-002 3.53982300e-003 0. 0. 1.76991150e-003
      3.53982300e-003 0. 1.76991150e-003 0. 0. 0. 0. 0. 0.
      7.07964599e-003 3.53982300e-003 0. 0. 0. 0. 0. 1.76991150e-003
      3.53982300e-003 0. 0. 0. 0. 0. 0. 0. 0. 0. 0. 0. 0. 0. 0.
      1.76991150e-003 0. 1.76991150e-003 0. 0. 1.76991150e-003
      1.76991150e-003 1.76991150e-003 0. 0. 0. 0. 0. 0. 0. 0. 0.
      3.53982300e-003 1.76991150e-003 0. 1.76991150e-003 0. 0. 0. 0.
      1.76991150e-003 0. 0. 1.06194690e-002 0. 0. 0. 0. 0. 0. 0. 0. 0.
      0. 0. 0. 1.76991150e-003 0. 0. 0. 0. 0. 7.07964599e-003 0. 0. 0.
      3.53982300e-003 0. 0. 0. 0. 0. 0. 0. 5.30973449e-003 0. 0. 0.
      1.23893805e-002 3.53982300e-003 0. 0. 0. 1.76991150e-003 0. 0. 0.
      0. 1.76991150e-003 0. 0. 0. 1.76991150e-003 0. 5.30973449e-003 0.
      0. 5.30973449e-003 3.53982300e-003 0. 0. 0. 0. 0. 0. 0. 0.
      1.76991150e-003 0. 8.84955749e-003 0. 0. 0. 3.53982300e-003 0. 0.
      7.07964599e-003 1.76991150e-003 0. 0. 0. 1.76991150e-003
      7.07964599e-003 0. 0. 0. 5.30973449e-003 0. 1.76991150e-003
      1.76991150e-003 0. 0. 0. 0. 0. 0. 1.76991150e-003 1.76991150e-003
      7.07964599e-003</_>
    <_>
      0. 3.89610371e-003 1.29870127e-003 0. 0. 0. 1.29870127e-003
      9.09090880e-003 1.29870127e-003 0. 5.19480510e-003 0. 0.
      1.29870127e-003 0. 0. 2.59740255e-003 0. 1.29870127e-003
      3.89610371e-003 0. 0. 0. 0. 0. 1.29870127e-003 0. 0. 0. 0. 0. 0.
      0. 0. 0. 0. 0. 1.29870127e-003 0. 0. 0. 6.49350649e-003 0. 0.
      1.29870127e-003 0. 0. 0. 0. 0. 0. 0. 1.29870127e-003 0. 0. 0.
      1.29870127e-003 1.29870127e-003 0. 2.59740255e-003 0. 0.
      1.29870127e-003 0. 0. 5.19480510e-003 0. 0. 6.49350649e-003
      1.03896102e-002 1.29870127e-003 0. 0. 0. 2.59740255e-003 0.
      2.59740255e-003 0. 1.29870127e-003 0. 0. 0. 0. 0. 1.29870127e-003
      0. 1.29870127e-003 1.29870127e-003 0. 0. 1.29870127e-003 0. 0. 0.
      2.59740255e-003 0. 5.19480510e-003 0. 0. 0. 2.59740255e-003
      2.59740255e-003 0. 0. 1.29870127e-003 0. 0. 2.59740255e-003 0.
      2.59740255e-003 0. 0. 0. 0. 1.29870127e-003 0. 0. 0. 0. 0.
      1.29870127e-003 0. 5.19480510e-003 2.59740255e-003 0.
      2.59740255e-003 1.29870127e-003 3.89610371e-003 0. 2.59740255e-003
      0. 0. 0. 1.29870127e-003 0. 0. 0. 0. 1.29870127e-003
      1.29870127e-003 1.42857144e-002 0. 0. 5.19480510e-003 0. 0. 0.
      2.59740255e-003 0. 1.29870127e-003 0. 0. 2.59740255e-003
      2.59740255e-003 1.29870127e-003 0. 0. 1.29870127e-003 0.
      2.59740255e-003 1.94805190e-002 0. 0. 0. 0. 0. 0. 0. 0.
      1.29870127e-003 0. 0. 0. 0. 0. 0. 0. 0. 0. 0. 0. 3.89610371e-003
      0. 0. 7.79220741e-003 0. 0. 1.29870127e-003 1.29870127e-003
      1.29870127e-003 0. 0. 1.29870127e-003 0. 0. 2.59740255e-003 0.
      2.59740255e-003 0. 1.29870127e-003 0. 0. 0. 0. 1.29870127e-003 0.
      1.29870127e-003 9.09090880e-003 0. 0. 0. 0. 0. 0. 0. 0. 0.
      1.29870127e-003 0. 0. 1.29870127e-003 0. 1.29870127e-003 0. 0. 0.
      1.29870127e-003 0. 0. 1.29870127e-003 0. 1.29870127e-003 0. 0. 0.
      0. 0. 6.49350649e-003 0. 0. 0. 0. 1.29870127e-003 1.29870127e-003
      2.59740255e-003 0. 0. 0. 2.59740255e-003 0. 0. 0. 0. 0. 0.
      5.19480510e-003 0. 0. 0. 1.29870127e-003 0. 0. 0. 0. 0. 0. 0. 0.
      0. 0. 0. 0. 0. 1.29870127e-003 1.29870127e-003 0. 0. 0. 0. 0. 0.
      0. 0. 0. 1.29870127e-003 0. 0. 0. 0. 0. 9.09090880e-003 0. 0. 0.
      0. 0. 6.49350649e-003 2.59740255e-003 0. 0. 0. 0. 0. 0.
      1.29870127e-003 0. 0. 0. 0. 2.59740255e-003 5.19480510e-003 0.
      5.19480510e-003 0. 0. 0. 0. 0. 5.19480510e-003 0. 0. 0.
      1.29870127e-003 3.89610371e-003 0. 0. 0. 0. 1.29870127e-003 0.
      3.89610371e-003 0. 0. 0. 0. 0. 5.19480510e-003 0. 3.89610371e-003
      0. 0. 0. 3.89610371e-003 3.89610371e-003 0. 0. 1.29870127e-003 0.
      0. 0. 5.19480510e-003 0. 0. 0. 0. 0. 0. 0. 0. 0. 0. 0. 0.
      3.89610371e-003 2.59740255e-003 0. 2.59740255e-003 2.59740255e-003
      0. 0. 9.09090880e-003 1.29870127e-003 0. 0. 0. 0. 0. 0.
      1.29870127e-003 0. 1.29870127e-003 0. 1.29870127e-003 0.
      1.29870127e-003 0. 0. 0. 0. 0. 0. 0. 1.29870127e-003 0. 0. 0.
      2.59740255e-003 0. 0. 0. 0. 1.29870127e-003 2.59740255e-003 0. 0.
      0. 0. 0. 0. 0. 2.59740255e-003 0. 1.29870127e-003 0. 0. 0. 0.
      1.29870127e-003 0. 0. 0. 0. 0. 0. 0. 3.37662324e-002
      1.29870127e-003 0. 1.29870127e-003 0. 0. 0. 1.29870127e-003 0. 0.
      2.59740255e-003 0. 1.29870127e-003 0. 0. 0. 5.19480510e-003
      3.89610371e-003 0. 7.79220741e-003 0. 2.59740255e-003
      1.29870127e-003 0. 1.29870127e-003 1.29870127e-003 5.19480510e-003
      0. 0. 0. 6.49350649e-003 0. 0. 0. 0. 2.59740255e-003 0.
      2.59740255e-003 0. 0. 1.29870127e-003 3.89610371e-003 0. 0. 0. 0.
      2.59740255e-003 0. 0. 0. 6.49350649e-003 1.29870127e-003 0. 0.
      3.89610371e-003 0. 0. 0. 0. 2.59740255e-003 0. 0. 1.29870127e-003
      0. 0. 0. 0. 0. 2.59740255e-003 0. 0. 0. 0. 0. 0. 0. 0. 0. 0.
      1.29870127e-003 0. 2.59740255e-003 0. 0. 1.29870127e-003 0.
      1.29870127e-003 0. 0. 0. 0. 0. 0. 2.59740255e-003 0.
      5.19480510e-003 6.49350649e-003 0. 0. 5.19480510e-003
      2.59740255e-003 0. 0. 0. 0. 0. 1.29870127e-003 0. 0. 0. 0. 0.
      1.29870127e-003 0. 0. 1.29870127e-003 0. 0. 0. 0. 0. 0. 0. 0. 0.
      0. 0. 0. 0. 1.29870127e-003 0. 9.09090880e-003 0. 2.59740255e-003
      2.59740255e-003 0. 3.89610371e-003 1.29870127e-003 0.
      3.89610371e-003 3.89610371e-003 0. 0. 0. 7.79220741e-003 0.
      1.29870127e-003 0. 0. 1.29870127e-003 0. 1.29870127e-003 0. 0. 0.
      2.59740255e-003 0. 0. 0. 0. 7.79220741e-003 0. 0. 0. 0.
      2.59740255e-003 3.89610371e-003 1.29870127e-003 0. 0.
      1.16883116e-002 1.29870127e-003 0. 0. 2.33766232e-002 0. 0. 0. 0.
      0. 1.29870127e-003 0. 1.29870127e-003 0. 0. 0. 1.29870127e-003
      1.29870127e-003 4.28571403e-002 0. 0. 0. 0. 1.29870127e-003
      2.59740255e-003 0. 0. 0. 0. 1.29870127e-003 0. 0. 0. 0. 0. 0. 0.
      0. 0. 0. 0. 0. 0. 0. 0. 2.59740255e-003 0. 0. 1.29870127e-003
      2.59740255e-003 0. 1.29870127e-003 0. 0. 2.33766232e-002
      2.59740255e-003 0. 0. 0. 0. 7.79220741e-003 5.19480510e-003 0.
      2.59740255e-003 0. 5.19480510e-003 0. 0. 2.59740255e-003
      6.49350649e-003 0. 0. 1.29870127e-003 0. 0. 1.29870127e-003 0. 0.
      0. 0. 0. 0. 0. 0. 0. 0. 0. 0. 0. 0. 7.79220741e-003 0. 0. 0. 0. 0.
      3.89610371e-003 0. 0. 1.29870127e-003 0. 0. 0. 1.29870127e-003 0.
      2.59740255e-003 0. 0. 0. 1.29870127e-003 0. 0. 0. 0. 0. 0.
      2.59740255e-003 0. 1.29870127e-003 0. 1.29870127e-003 0. 0. 0. 0.
      0. 3.89610371e-003 2.59740255e-003 0. 0. 0. 3.89610371e-003 0.
      1.29870127e-003 0. 2.59740255e-003 5.19480510e-003 0. 0.
      1.29870127e-003 0. 0. 0. 0. 0. 0. 0. 2.59740255e-003
      1.29870127e-003 2.59740255e-003 7.79220741e-003 0. 3.89610371e-003
      0. 0. 1.29870127e-003 0. 2.59740255e-003 0. 0. 0. 0. 0. 0. 0.
      2.59740255e-003 5.19480510e-003 0. 0. 0. 0. 0. 1.29870127e-003
      1.29870127e-003 1.29870127e-003 1.29870127e-003 0. 0. 0. 0. 0. 0.
      1.29870127e-003 0. 2.98701301e-002 0. 1.29870127e-003 0. 0. 0.
      1.29870127e-003 0. 2.59740255e-003 0. 0. 0. 0. 0. 0.
      1.29870127e-003 0. 0. 1.29870127e-003 1.29870127e-003 0. 0. 0.
      1.29870127e-003 1.29870127e-003 1.29870127e-003 0. 0. 0. 0.
      1.29870127e-003 0. 0. 6.49350649e-003 1.29870127e-003 0. 0. 0. 0.
      0. 0. 0. 0. 1.29870127e-003 0. 2.59740255e-003 0. 0. 0. 0. 0.
      1.29870127e-003 0. 0. 5.19480510e-003 0. 0. 1.29870127e-003
      1.29870127e-003 0. 0. 0. 1.29870127e-003 0. 1.29870127e-003 0. 0.
      5.19480510e-003 0. 0. 0. 0. 1.29870127e-003 1.29870127e-003 0. 0.
      1.29870127e-003 3.89610371e-003 0. 0. 0. 2.59740255e-003 0.
      1.29870127e-003 0. 2.59740255e-003 0. 0. 0. 0. 0. 0. 0. 0. 0. 0.
      0. 1.29870130e-002 2.59740255e-003 2.59740255e-003 0. 0.
      1.29870127e-003 0. 0. 0. 2.59740255e-003 0. 0. 1.29870127e-003 0.
      1.29870127e-003 0. 0. 3.89610371e-003 5.19480510e-003 0. 0.
      1.29870127e-003 0. 0. 2.59740255e-003 0. 0. 0. 0. 1.03896102e-002
      0. 0. 0. 0. 0. 0. 0. 0. 0. 0. 1.29870127e-003 0. 0.
      1.29870127e-003 0. 0. 0. 0. 0. 0. 0. 0. 0. 0. 1.29870127e-003 0.
      0. 0. 0. 0. 1.29870127e-003 1.29870127e-003 0. 0. 0. 0. 0. 0.
      2.59740255e-003 0. 0. 0. 0. 1.29870127e-003 0. 2.59740255e-003 0.
      0. 0. 0. 5.19480510e-003 5.19480510e-003 0. 0. 0. 0.
      1.29870127e-003 0. 5.19480510e-003 0. 0. 2.59740255e-003
      9.09090880e-003 0. 0. 0. 1.29870127e-003 0. 1.29870127e-003 0. 0.
      0. 0. 0. 1.29870127e-003 1.29870127e-003 0. 0. 0. 0. 0. 0. 0. 0.
      0. 0. 1.42857144e-002 0. 2.59740255e-003 0. 0. 2.59740255e-003 0.
      1.29870127e-003</_>
    <_>
      1.34408602e-003 0. 0. 2.68817204e-003 0. 0. 0. 0. 0.
      8.06451589e-003 5.37634408e-003 1.34408602e-003 2.68817204e-003
      4.03225794e-003 0. 1.34408602e-003 0. 1.34408602e-003 0. 0. 0.
      1.34408602e-003 1.34408602e-003 0. 2.68817204e-003 0. 0.
      2.68817204e-003 0. 1.34408602e-003 0. 1.34408602e-003 0. 0.
      4.03225794e-003 1.34408602e-003 1.34408602e-003 1.34408602e-003 0.
      4.03225794e-003 1.34408602e-003 0. 5.37634408e-003 1.34408602e-003
      0. 2.68817204e-003 2.68817204e-003 0. 0. 0. 0. 1.34408602e-003
      2.68817204e-003 2.68817204e-003 0. 2.68817204e-003 0.
      2.68817204e-003 0. 0. 0. 0. 1.34408602e-003 1.34408602e-003 0.
      1.34408602e-003 2.68817204e-003 0. 0. 1.34408602e-003
      2.68817204e-003 1.34408602e-003 1.34408602e-003 4.03225794e-003 0.
      0. 1.34408602e-003 0. 0. 4.03225794e-003 4.03225794e-003 0. 0. 0.
      0. 1.34408602e-003 0. 2.68817204e-003 4.03225794e-003 0. 0. 0.
      1.34408602e-003 0. 2.68817204e-003 0. 0. 1.34408602e-003
      1.34408602e-003 0. 0. 0. 1.34408602e-003 0. 2.68817204e-003 0. 0.
      4.03225794e-003 0. 4.03225794e-003 1.34408602e-003 0. 0. 0. 0. 0.
      0. 4.03225794e-003 1.34408602e-003 0. 2.68817204e-003
      6.72043022e-003 0. 0. 1.34408602e-003 0. 0. 0. 0. 0. 0.
      1.34408602e-003 1.34408602e-003 0. 0. 0. 5.37634408e-003 0. 0. 0.
      0. 1.34408602e-003 0. 0. 0. 0. 0. 2.68817204e-003 1.34408602e-003
      2.68817204e-003 2.68817204e-003 1.34408602e-003 0. 4.03225794e-003
      0. 2.68817204e-003 1.34408602e-003 8.06451589e-003 0.
      1.34408602e-003 1.34408602e-003 4.03225794e-003 2.68817204e-003
      4.03225794e-003 0. 0. 0. 0. 0. 1.34408602e-003 0. 0. 0. 0. 0. 0.
      0. 0. 0. 4.03225794e-003 0. 0. 2.68817204e-003 1.34408602e-003 0.
      1.34408602e-003 0. 0. 1.34408602e-003 1.34408602e-003 0.
      2.68817204e-003 1.34408602e-003 0. 1.34408602e-003 0. 0. 0. 0.
      4.03225794e-003 0. 0. 2.68817204e-003 0. 0. 0. 0. 2.68817204e-003
      4.03225794e-003 0. 0. 0. 0. 0. 0. 1.34408602e-003 1.34408602e-003
      1.34408602e-003 1.34408602e-003 0. 1.34408602e-003 0. 0.
      1.34408602e-003 0. 0. 1.34408602e-003 0. 0. 0. 5.37634408e-003 0.
      0. 1.34408602e-003 1.34408602e-003 0. 0. 0. 0. 0. 0. 0.
      1.34408602e-003 0. 2.68817204e-003 0. 0. 1.34408602e-003 0.
      1.34408602e-003 0. 1.34408602e-003 0. 0. 2.68817204e-003
      2.68817204e-003 1.34408602e-003 0. 0. 0. 1.34408602e-003 0.
      2.68817204e-003 1.34408602e-003 0. 0. 4.03225794e-003 0.
      5.37634408e-003 4.03225794e-003 0. 0. 0. 0. 0. 1.34408602e-003
      1.34408602e-003 0. 0. 0. 4.03225794e-003 0. 1.34408602e-003 0. 0.
      1.34408602e-003 6.72043022e-003 1.34408602e-003 0. 1.34408602e-003
      0. 1.34408602e-003 1.34408602e-003 0. 0. 1.34408602e-003 0. 0. 0.
      0. 0. 0. 0. 0. 2.68817204e-003 0. 0. 0. 0. 0. 0. 1.34408602e-003
      0. 0. 1.34408602e-003 0. 2.68817204e-003 1.34408602e-003 0. 0. 0.
      2.68817204e-003 0. 2.68817204e-003 0. 1.34408602e-003 0. 0.
      2.68817204e-003 0. 4.03225794e-003 1.34408602e-003 0.
      2.68817204e-003 1.34408602e-003 0. 5.37634408e-003 0. 0.
      2.68817204e-003 0. 0. 0. 0. 0. 0. 0. 0. 0. 4.03225794e-003 0. 0.
      4.03225794e-003 0. 2.68817204e-003 0. 0. 2.68817204e-003 0. 0. 0.
      0. 0. 0. 1.34408602e-003 4.03225794e-003 0. 2.68817204e-003 0.
      1.34408602e-003 0. 1.34408602e-003 2.68817204e-003 0.
      2.68817204e-003 0. 1.34408602e-003 2.68817204e-003 4.03225794e-003
      0. 0. 2.68817204e-003 0. 0. 2.68817204e-003 0. 0. 0.
      1.34408602e-003 1.34408602e-003 1.34408602e-003 1.34408602e-003 0.
      1.34408602e-003 2.68817204e-003 0. 0. 6.72043022e-003
      1.34408602e-003 1.34408602e-003 0. 0. 0. 0. 0. 1.34408602e-003
      4.03225794e-003 0. 1.34408602e-003 0. 1.34408602e-003 0.
      1.34408602e-003 4.03225794e-003 0. 1.34408602e-003 0. 0. 0. 0. 0.
      2.68817204e-003 0. 0. 2.68817204e-003 0. 1.34408602e-003 0. 0.
      5.37634408e-003 2.68817204e-003 0. 6.72043022e-003 0. 0.
      2.68817204e-003 6.72043022e-003 0. 1.34408602e-003 1.34408602e-003
      1.34408602e-003 0. 0. 0. 0. 0. 1.07526882e-002 1.34408602e-003 0.
      1.34408602e-003 0. 0. 1.34408602e-003 0. 1.34408602e-003 0.
      1.34408602e-003 1.34408602e-003 6.72043022e-003 0. 0. 0. 0. 0. 0.
      0. 1.34408602e-003 0. 0. 8.06451589e-003 4.03225794e-003 0.
      4.03225794e-003 1.34408602e-003 2.68817204e-003 0. 0. 0.
      1.34408602e-003 5.37634408e-003 1.34408602e-003 2.68817204e-003 0.
      0. 0. 1.34408602e-003 0. 4.03225794e-003 1.34408602e-003 0. 0. 0.
      1.34408602e-003 0. 4.03225794e-003 0. 1.34408602e-003 0.
      2.68817204e-003 0. 1.34408602e-003 6.72043022e-003 1.34408602e-003
      0. 0. 1.34408602e-003 1.34408602e-003 0. 0. 0. 1.34408602e-003 0.
      1.34408602e-003 0. 1.34408602e-003 0. 0. 1.34408602e-003 0. 0.
      2.68817204e-003 0. 1.34408602e-003 0. 0. 0. 4.03225794e-003 0.
      2.68817204e-003 9.40860249e-003 0. 0. 0. 0. 0. 0. 0. 0.
      1.34408602e-003 1.34408602e-003 1.34408602e-003 0. 0.
      2.68817204e-003 2.68817204e-003 1.34408602e-003 0. 1.34408602e-003
      0. 0. 0. 0. 0. 1.34408602e-003 0. 1.34408602e-003 0. 0. 0. 0. 0.
      0. 0. 1.34408602e-003 0. 1.34408602e-003 0. 0. 0. 0.
      2.68817204e-003 0. 0. 5.37634408e-003 1.34408602e-003
      1.34408602e-003 0. 0. 1.34408602e-003 2.68817204e-003 0.
      2.68817204e-003 1.34408602e-003 0. 0. 0. 0. 0. 0. 0. 0.
      1.34408602e-003 2.68817204e-003 0. 5.37634408e-003 1.34408602e-003
      2.68817204e-003 0. 2.68817204e-003 0. 4.03225794e-003 0.
      1.34408602e-003 0. 2.68817204e-003 0. 2.68817204e-003 0.
      1.34408602e-003 1.34408602e-003 1.34408602e-003 0. 0. 0.
      1.34408602e-003 0. 0. 0. 0. 2.68817204e-003 2.68817204e-003 0. 0.
      0. 2.68817204e-003 2.68817204e-003 1.34408602e-003 1.34408602e-003
      0. 1.34408602e-003 5.37634408e-003 0. 0. 0. 0. 0. 0. 0. 0.
      2.68817204e-003 2.68817204e-003 0. 2.68817204e-003 2.68817204e-003
      5.37634408e-003 1.34408602e-003 0. 0. 0. 0. 4.03225794e-003 0. 0.
      1.34408602e-003 0. 0. 0. 0. 1.34408602e-003 2.68817204e-003 0. 0.
      0. 1.34408602e-003 1.61290318e-002 0. 0. 0. 0. 1.34408602e-003 0.
      1.34408602e-003 2.68817204e-003 2.68817204e-003 0. 1.34408602e-003
      0. 0. 1.34408602e-003 1.34408602e-003 2.68817204e-003
      4.03225794e-003 1.34408602e-003 1.34408602e-003 0. 0. 0. 0. 0.
      1.34408602e-003 0. 0. 0. 2.68817204e-003 1.34408602e-003
      2.68817204e-003 4.03225794e-003 0. 2.68817204e-003 2.68817204e-003
      1.34408602e-003 1.34408602e-003 6.72043022e-003 0. 2.68817204e-003
      0. 4.03225794e-003 1.34408602e-003 1.34408602e-003 0. 0.
      2.68817204e-003 0. 0. 0. 4.03225794e-003 0. 1.34408602e-003 0. 0.
      0. 2.68817204e-003 0. 4.03225794e-003 0. 0. 0. 2.68817204e-003
      2.68817204e-003 1.34408602e-003 0. 0. 0. 0. 0. 0. 0.
      1.34408602e-003 0. 0. 2.68817204e-003 0. 0. 1.34408602e-003
      1.34408602e-003 0. 0. 0. 1.34408602e-003 0. 0. 0. 0. 0. 0.
      1.34408602e-003 2.68817204e-003 0. 0. 0. 0. 4.03225794e-003 0. 0.
      0. 0. 1.34408602e-003 2.68817204e-003 0. 0. 0. 0. 0. 0. 0. 0. 0.
      0. 0. 2.68817204e-003 0. 0. 0. 0. 0. 0. 4.03225794e-003 0.
      2.68817204e-003 2.68817204e-003 2.68817204e-003 0. 0. 0. 0.
      4.03225794e-003 1.34408602e-003 1.34408602e-003 0. 0. 0. 0. 0. 0.
      4.03225794e-003 0. 0. 0. 4.03225794e-003 0. 0. 0. 0.
      1.34408602e-003 1.34408602e-003 2.68817204e-003 0. 5.37634408e-003
      0. 0. 0. 2.68817204e-003 6.72043022e-003 0. 0. 1.34408602e-003 0.
      4.03225794e-003 1.34408602e-003 1.34408602e-003 0. 0.
      1.34408602e-003 2.68817204e-003 0. 0. 0. 1.34408602e-003 0. 0.
      1.34408602e-003 1.34408602e-003 0. 0. 0. 0. 5.37634408e-003 0.
      1.34408602e-003 0. 1.34408602e-003 0. 0. 1.34408602e-003
      1.34408602e-003 5.37634408e-003 1.34408602e-003 0. 0.
      1.34408602e-003 0. 0. 1.34408602e-003 0. 0. 0. 0. 1.34408602e-003
      0. 2.68817204e-003 0. 1.34408602e-003 0. 0. 0. 0. 0. 0.
      1.34408602e-003 0. 0. 2.68817204e-003 1.34408602e-003 0. 0. 0. 0.
      0. 0. 0. 1.34408602e-003 0. 1.34408602e-003 0. 0. 1.34408602e-003
      0. 0. 0. 0. 1.34408602e-003 2.68817204e-003 1.34408602e-003 0.
      2.68817204e-003 0. 0. 0. 1.34408602e-003 0. 0. 1.34408602e-003
      5.37634408e-003 1.34408602e-003 2.68817204e-003 0. 0. 0. 0.
      1.34408602e-003 0. 0. 2.68817204e-003 0. 0. 0. 0. 1.34408602e-003
      1.34408602e-003 4.03225794e-003 0. 0. 0. 1.34408602e-003
      2.68817204e-003 0. 4.03225794e-003 9.40860249e-003 0.
      2.68817204e-003 2.68817204e-003 0. 1.34408602e-003 1.34408602e-003
      0. 0. 0. 2.68817204e-003 1.34408602e-003 2.68817204e-003
      2.68817204e-003 1.34408602e-003 1.34408602e-003 4.03225794e-003 0.
      0. 0. 0. 0. 0. 0. 0. 0. 0. 0. 1.34408602e-003 0. 0. 0. 0. 0. 0. 0.
      4.03225794e-003 1.34408602e-003 0. 0. 0. 0. 0. 0. 0. 0.
      2.68817204e-003 0. 4.03225794e-003 0. 9.40860249e-003
      1.34408602e-003 1.34408602e-003 0. 0. 0. 2.68817204e-003 0.
      1.34408602e-003 1.34408602e-003 0. 0. 0.</_>
    <_>
      0. 0. 3.64464708e-002 0. 0. 0. 0. 0. 0. 0. 0. 0. 0.
      2.27790442e-003 0. 6.83371350e-003 0. 0. 0. 0. 0. 0. 0. 0. 0. 0.
      0. 0. 4.55580885e-003 0. 2.27790442e-003 0. 0. 4.55580885e-003 0.
      0. 0. 0. 0. 0. 2.27790442e-003 5.23918010e-002 0. 2.27790442e-003
      0. 0. 2.27790442e-003 0. 0. 0. 0. 0. 6.83371350e-003 0. 0. 0.
      4.55580885e-003 0. 2.27790442e-003 0. 0. 0. 0. 2.27790442e-003 0.
      4.55580885e-003 0. 0. 0. 0. 0. 0. 2.27790442e-003 0.
      6.83371350e-003 0. 2.27790442e-003 0. 0. 0. 0. 0. 0. 0. 0.
      2.27790442e-003 0. 0. 0. 2.50569489e-002 0. 2.27790442e-003 0. 0.
      0. 0. 2.27790442e-003 2.27790442e-003 0. 0. 0. 4.55580885e-003 0.
      0. 4.55580885e-003 0. 0. 0. 0. 0. 0. 0. 0. 0. 0. 2.27790442e-003
      1.59453303e-002 0. 0. 2.27790442e-003 0. 0. 0. 0. 4.55580885e-003
      0. 0. 0. 1.59453303e-002 2.27790442e-003 0. 0. 0. 0. 0. 0. 0. 0.
      2.27790442e-003 0. 0. 0. 0. 0. 0. 0. 0. 0. 0. 0. 0. 0. 0.
      2.27790442e-003 2.27790442e-003 0. 0. 0. 0. 1.13895219e-002 0.
      2.27790442e-003 0. 0. 0. 0. 0. 0. 0. 0. 0. 2.27790442e-003 0. 0.
      0. 0. 0. 0. 0. 0. 0. 2.27790442e-003 2.27790442e-003
      2.27790442e-003 0. 0. 2.27790442e-003 0. 0. 0. 0. 0. 0. 0. 0. 0.
      0. 0. 0. 0. 2.27790442e-003 2.27790442e-003 0. 0. 0. 0. 0. 0.
      2.27790438e-002 2.27790442e-003 0. 2.27790442e-003 0. 0. 0. 0.
      4.55580885e-003 2.27790442e-003 0. 0. 0. 0. 0. 0. 0.
      4.55580885e-003 0. 0. 0. 0. 0. 0. 0. 0. 0. 2.27790442e-003 0. 0.
      0. 0. 0. 0. 2.27790442e-003 0. 0. 0. 2.27790442e-003 0. 0.
      6.83371350e-003 0. 0. 0. 2.27790442e-003 0. 0. 0. 0. 0.
      2.27790442e-003 0. 0. 0. 0. 0. 0. 0. 2.27790442e-003
      2.27790442e-003 0. 0. 0. 0. 0. 0. 0. 0. 2.27790442e-003 0. 0.
      2.27790442e-003 0. 0. 0. 0. 2.27790442e-003 0. 4.55580885e-003 0.
      0. 0. 2.27790442e-003 0. 6.83371350e-003 0. 0. 2.27790442e-003 0.
      2.27790442e-003 0. 2.27790442e-003 2.27790442e-003 0. 0. 0.
      1.13895219e-002 0. 0. 0. 0. 1.36674270e-002 0. 0. 0. 0. 0.
      2.27790442e-003 0. 0. 0. 0. 0. 0. 0. 0. 0. 2.27790442e-003 0. 0.
      0. 0. 0. 2.27790442e-003 2.27790442e-003 0. 0. 0. 0.
      2.27790442e-003 0. 0. 0. 9.11161769e-003 0. 0. 0. 2.27790442e-003
      0. 0. 0. 0. 0. 2.27790442e-003 0. 0. 0. 0. 6.83371350e-003 0. 0.
      2.27790442e-003 0. 0. 0. 0. 4.55580885e-003 0. 0. 0. 0. 0. 0. 0.
      4.55580885e-003 0. 0. 0. 0. 0. 0. 6.83371350e-003 0. 0. 0. 0. 0.
      0. 0. 0. 6.83371350e-003 0. 0. 2.27790442e-003 0. 2.27790442e-003
      0. 0. 0. 2.27790442e-003 2.27790442e-003 0. 2.27790442e-003 0. 0.
      0. 0. 0. 0. 2.27790442e-003 0. 0. 0. 0. 0. 0. 0. 0. 0. 0. 0. 0. 0.
      0. 0. 0. 0. 0. 0. 2.27790442e-003 0. 0. 0. 2.27790442e-003 0. 0.
      0. 0. 0. 2.27790442e-003 0. 2.27790442e-003 0. 0. 0. 0. 0.
      2.27790442e-003 2.27790442e-003 0. 9.11161769e-003 0. 0.
      9.11161769e-003 6.83371350e-003 0. 0. 0. 0. 0. 0. 2.27790442e-003
      2.27790442e-003 0. 2.27790442e-003 2.27790442e-003 0.
      2.27790442e-003 0. 0. 0. 0. 0. 2.27790442e-003 0. 0. 0. 0. 0. 0.
      0. 0. 0. 0. 0. 0. 6.83371350e-003 0. 0. 0. 0. 0. 0. 0. 0. 0. 0. 0.
      0. 0. 0. 0. 4.55580885e-003 2.27790442e-003 0. 2.27790442e-003
      4.55580885e-003 0. 0. 0. 0. 0. 0. 0. 0. 0. 0. 2.27790442e-003
      2.27790442e-003 3.87243740e-002 0. 0. 0. 0. 0. 0. 0. 0. 0. 0. 0.
      0. 2.27790442e-003 0. 2.27790442e-003 0. 0. 0. 0. 0. 0. 0. 0. 0.
      0. 6.83371350e-003 0. 0. 0. 4.55580885e-003 2.27790442e-003
      2.27790442e-003 0. 0. 0. 2.27790442e-003 0. 0. 0. 2.27790442e-003
      0. 2.27790442e-003 0. 0. 0. 0. 6.83371350e-003 0. 0. 0. 0.
      2.27790442e-003 2.27790442e-003 0. 0. 0. 2.27790442e-003 0.
      9.11161769e-003 0. 0. 1.36674270e-002 0. 0. 2.27790442e-003 0. 0.
      2.27790442e-003 0. 0. 0. 1.13895219e-002 2.27790442e-003 0. 0. 0.
      0. 0. 0. 0. 0. 0. 0. 0. 0. 0. 0. 0. 0. 0. 0. 0. 0. 0.
      1.13895219e-002 0. 0. 0. 2.27790442e-003 0. 0. 0. 0.
      2.27790442e-003 0. 0. 0. 0. 0. 0. 0. 0. 2.27790442e-003
      6.83371350e-003 0. 4.55580885e-003 0. 0. 0. 0. 0. 0. 0. 0. 0. 0.
      0. 6.83371350e-003 0. 0. 0. 0. 0. 0. 0. 0. 0. 2.27790442e-003 0.
      2.27790442e-003 0. 0. 0. 0. 0. 0. 0. 0. 2.27790442e-003 0. 0. 0.
      0. 0. 0. 4.55580885e-003 0. 0. 0. 0. 0. 2.27790442e-003 0. 0. 0.
      0. 0. 0. 2.27790442e-003 0. 0. 0. 0. 0. 0. 0. 0. 6.83371350e-003
      0. 0. 0. 0. 0. 0. 4.55580885e-003 2.27790442e-003 0. 0. 0. 0. 0.
